represent -0.11577 -0.12814 -0.29967 0.050757 0.52467 -0.21315 0.15847 0.62064 0.082866 2.5096 0.25736 -0.082208 0.1019 0.1913 0.13098 0.069366 0.030243 1.171 -0.13301 0.021357 0.1056 -0.22821 -0.04138 0.054757 0.24743 -0.14364 0.031313 -0.020447 -0.050946 0.20708 0.1785 0.2309 -0.045718 0.12364 -0.0316 0.29829 -0.092913 -0.2628 -0.14575 -0.01264 -0.20078 0.63922 -0.11823 0.22336 0.19091 -0.31394 0.53902 -0.10655 0.12501 -0.042177 -0.45811 0.33837 -0.19385 -0.08098 0.34504 0.21229 -0.29824 0.35408 0.1536 0.091076 -0.17453 -0.020497 -0.22241 0.12172 -0.13339 0.30939 -0.096336 0.2057 0.19423 -0.44572 -0.11001 0.34197 0.35197 -0.17708 0.074231 0.0096686 0.019109 -0.68362 0.11804 -0.17541 -0.28239 0.21809 -0.46926 0.047612 0.27618 -0.48353 -0.53566 0.27977 -0.46532 -0.36722 -0.33385 -0.092007 0.11779 0.063072 -0.087546 0.14849 -0.13442 0.20037 -0.18457 -0.021037 -0.036242 0.1319 0.30057 0.078018 -0.15434 -1.2814 -0.24395 -0.17443 -0.17483 0.70203 -0.22292 -0.40847 -0.081058 0.09723 -0.082347 0.16172 -0.066189 0.064656 -0.060381 -0.05018 -0.15993 -0.049764 -0.10795 -0.0012085 0.33331 0.26256 0.056118 -0.20257 -0.22469 0.18343 0.091064 0.23329 0.2161 0.036681 -0.13069 0.13623 -0.24529 -0.1863 0.14471 0.12803 0.025294 0.09694 -0.47893 0.016613 0.088705 -0.073448 0.18692 0.11212 0.30589 0.056634 0.2267 -0.036529 -0.19619 0.2086 -0.057027 -0.21147 -0.41202 0.02416 -0.52709 -0.13049 0.14582 0.19586 -0.20402 -0.16236 -0.20849 0.15949 0.13082 0.067715 5.6788e-05 0.093881 0.18696 0.19 0.37843 0.02882 0.0049475 0.12109 0.031349 -0.017132 0.050387 -0.37982 0.46381 0.30623 0.087045 -0.157 -0.086723 0.30178 -0.18019 0.14872 0.043848 0.43021 0.094852 -0.2269 -0.23957 -0.1828 0.61187 -0.13014 0.090848 -0.023966 -0.34345 0.45225 0.091487 -0.19489 0.18866 0.35056 0.27804 -0.2607 0.0050229 0.22195 0.25017 -0.15525 0.19573 0.1814 -0.026719 -0.070503 0.20916 0.51033 0.25189 -0.13363 0.097871 -0.046973 0.19209 -0.0086423 0.18804 -0.23911 0.27906 0.4554 0.23877 0.09919 -0.21038 -0.043342 -0.56579 -0.34754 -0.04691 0.31142 -0.31177 0.3184 -0.25308 -0.28419 0.10287 -0.058406 -0.46425 0.11657 0.28528 -0.12454 -0.013475 -0.14999 0.2956 -0.013831 -0.17135 0.057031 0.33893 0.057683 0.030777 -0.1009 -0.26067 0.25888 0.39787 0.39952 -0.03564 0.0081803 -0.052796 0.26357 -0.1635 0.39245 -0.05093 0.012387 0.49162 0.16296 0.88145 0.24043 -0.37264 -0.16729 0.012773 0.27403 -0.009195 -0.26051 0.048649 0.1291 -0.16503 -0.23597 -0.022115 0.50309 -0.31353 -0.015371 -0.24375 -0.16572 -0.32637 0.16905 0.46756 0.31101 -0.51936 -0.10376 -0.23049 -0.064453 -0.27307 -0.18079 -0.30943 -0.42068 0.27765 -0.042307
think -0.21788 0.44128 -0.43204 -0.19803 -0.0027968 0.28803 0.080648 -0.14643 0.0223 2.5941 -0.25959 -0.084183 0.42613 0.0087662 -0.33843 -0.17814 -0.42161 0.33757 -0.39092 -0.060522 0.29517 0.1459 0.32846 -0.058106 -0.19982 0.11735 -0.30825 -0.22648 0.47433 -0.24415 -0.30177 0.6739 0.065974 0.045855 -0.036646 0.099892 0.13664 0.1636 -0.17109 -0.24558 -0.12538 0.21834 -0.15026 0.13336 0.33971 0.094071 -0.51316 -0.15819 0.027468 -0.034402 -0.05591 0.069633 -0.012256 -0.051804 0.27225 -0.18355 -0.24559 -0.3137 0.1562 0.063014 -0.32111 -0.51905 -0.11712 0.36818 0.040482 -0.4388 -0.083865 0.095061 0.31995 0.052088 0.23889 -0.0016807 0.31965 -0.068731 0.13477 0.32888 0.027228 -0.19567 -0.10522 0.43544 0.018869 -0.024586 0.095041 -0.10182 0.22237 -0.39997 0.077279 -0.87118 0.33649 -0.23464 -0.17064 -0.16163 -0.21596 0.43201 0.22237 0.054215 0.2443 0.083594 0.0097403 0.16315 -0.17864 -0.078538 -0.032577 -0.13266 0.4189 -0.77905 -0.21269 -0.28179 -0.36263 0.27969 0.051118 -0.43791 -0.066222 -0.29007 0.098879 0.068701 -0.17953 -0.24516 0.06237 -0.18344 0.23848 -0.38926 0.014563 -0.15011 0.41463 0.23519 0.15768 -0.42338 -0.059981 -0.085539 -0.19645 0.16238 0.013915 0.035895 0.15087 -0.12057 0.0025404 -0.329 0.11253 -0.11478 -2.2095 0.21364 0.0144 0.33077 -0.073231 -0.33165 -0.34116 0.19457 -0.25111 -0.29986 -0.023206 -0.046035 -0.080109 0.089126 0.052734 -0.09549 0.020326 -0.34696 -0.13078 0.049967 -0.33681 0.2743 -0.45855 -0.050902 -0.24579 -0.099564 0.27532 -0.2278 0.11668 -0.092933 -0.13185 -0.20557 0.067947 -0.46485 0.089792 -0.01648 -0.14847 0.18379 0.19782 -0.086026 0.090624 -0.084892 -0.37597 -0.19855 -0.01209 0.01282 0.077705 -0.12059 0.11353 0.29137 0.10847 0.13505 -0.29519 -0.309 0.11161 -0.041132 -0.076808 -0.26873 0.091791 0.33636 0.19916 -0.185 -0.10462 -0.3059 0.15874 0.092589 0.021171 -0.1878 0.20077 0.24509 -0.227 -0.21141 0.019871 -0.40445 0.25579 0.22388 -0.22641 -0.074679 -0.2803 -0.11511 0.12736 0.19723 0.031854 0.035542 0.16587 0.10235 0.24897 0.1035 -0.042974 -0.08186 -0.43416 0.1039 -0.016777 0.1612 0.0743 -0.099311 0.18984 -0.12747 -0.060094 0.49008 0.10554 -0.06039 0.020226 0.53835 -0.07115 -0.14458 0.086395 -0.051988 -0.32138 0.49567 0.29081 -0.28324 -0.16194 0.010306 -0.36499 -0.045294 -0.17151 -0.05691 0.16989 0.18708 0.40052 0.24493 0.12178 0.34254 0.1589 0.080175 -0.11652 0.33864 0.45713 0.50961 -0.17444 -0.011862 -0.094227 -0.42007 -0.22938 0.084131 0.18915 -0.3554 -0.17737 0.34414 -0.19804 -0.23456 0.023658 -0.042666 0.073081 -0.021149 0.30316 -0.29115 0.08306 0.034784 -0.15084 0.027544 -0.27939 0.038548 0.22003 0.18208 -0.50746 -0.16472 0.32255 0.30579
bury 0.19305 -0.38886 -0.13527 0.29027 0.28047 -0.15638 -0.36887 -0.041573 -0.43763 1.6123 0.16046 -0.12777 0.29251 0.07864 -0.4858 -0.27549 0.23061 -0.25963 0.033642 0.30869 0.41413 0.30286 -0.50877 0.17879 0.065354 0.055485 -0.52172 0.40055 -0.13481 0.021092 0.18763 0.26138 -0.16169 0.14378 0.32528 0.14242 0.30543 0.29508 0.18019 0.41225 -0.34015 -0.13277 -0.25136 -0.37866 0.38373 -0.55432 0.37162 0.12085 -0.022679 0.23984 0.29076 0.26118 -0.44721 -0.090667 0.31189 0.35477 -0.57459 0.068129 -0.20016 0.68597 -0.34032 0.24794 -0.048722 -0.25532 0.41062 0.16059 -0.25519 -0.42228 0.1768 -0.11239 -0.25227 0.42363 -0.17551 0.045208 0.13361 0.15727 0.037474 -0.37101 0.41996 -0.52718 -0.014322 0.40023 -0.33108 -0.32991 -0.42016 -0.45362 0.90785 -0.1312 0.20002 0.30052 -0.42291 -0.20186 -0.026127 -0.24489 -0.062828 0.63004 -0.35173 0.0074096 0.0089787 -0.44145 0.0141 0.14691 0.55445 -0.24946 0.024887 -1.3018 0.15961 0.50468 -0.18276 0.042229 0.52938 0.22038 0.058616 0.33918 0.25646 -0.024376 0.067896 -0.2323 -0.17008 -0.01856 0.17025 -0.36418 -0.17288 -0.072323 0.05374 -0.15905 0.02599 -0.037972 0.035186 -0.021855 -0.24333 0.27389 -0.068409 0.059356 -0.26492 0.013363 0.12184 -0.0037115 0.23114 -0.32373 -1.8625 -0.15457 -0.29441 -0.0070591 -0.1425 0.22092 -0.30276 0.051008 0.62592 -0.26347 0.14424 0.04202 0.3751 0.25399 -0.08682 -0.01106 -0.041612 -0.033124 -0.084762 0.29392 0.12027 -0.073139 0.28467 0.26275 -0.36393 0.37374 0.22625 -0.067581 0.087005 0.23604 -0.27831 -0.27555 0.15132 -0.24268 0.27046 0.15002 0.012481 0.18898 0.11939 0.029789 0.066547 -0.093649 0.14288 0.4525 0.21311 0.24387 -0.032216 -0.62356 0.61493 0.16948 -0.053152 0.064098 -0.098858 -0.09986 -0.13429 0.10867 -0.21406 -0.38716 0.40261 -0.12087 0.31921 -0.19187 -0.072397 -0.62432 -0.18156 -0.020331 -0.17974 0.19923 0.17134 -0.69167 0.056761 0.36121 -0.41287 0.184 0.14112 -0.32932 0.12657 0.18009 -0.092907 -0.15103 0.26986 0.12475 0.28256 -0.21319 -0.052411 -0.035699 -0.34192 -0.058446 -0.35489 0.038143 0.013394 0.15305 -0.35824 -0.2297 -0.20141 -0.11701 0.2286 -0.079484 0.44583 -0.39696 0.1688 -0.16569 -0.29059 -0.38948 0.088412 -0.31728 0.2702 -0.35807 -0.2996 0.43818 -0.19372 0.044863 -0.36342 -0.30696 0.3436 -0.26042 -0.75359 -0.2334 0.17986 0.081593 -0.091128 0.14235 0.49449 -0.4789 0.27001 -0.49845 -0.18326 -0.2988 -0.81198 0.3932 0.80135 0.19427 0.27033 0.21655 -0.0063646 -0.26292 0.066646 0.72119 -0.1782 -0.31811 0.2845 -0.25007 -0.12574 -0.03227 -0.14046 0.035563 -0.099948 -0.4807 0.14128 -0.089135 -0.456 -0.14754 -0.12769 -0.14228 0.11995 -0.37191 -0.37123 0.078424 -0.032056 -0.35893
help -0.2937 0.32253 -0.44779 0.16997 -0.15069 -0.46242 -0.073691 -0.27533 -0.021939 2.7617 -0.56743 -0.19126 0.083494 -0.063911 -0.15757 -0.39387 0.067145 1.448 -0.37881 0.022702 0.25403 -0.025916 -0.046614 -0.13233 -0.30183 0.24003 0.28492 -0.067809 0.037457 -0.59321 0.1494 -0.26237 -0.18522 -0.083629 0.5473 0.077082 0.057384 0.024956 0.087513 -0.3162 -0.25266 -0.40801 -0.24891 -0.67215 -0.15638 0.12789 0.21375 0.3559 -0.032342 0.036218 -0.11241 -0.24307 0.36287 0.14223 -0.066054 0.16492 -0.040345 0.094064 -0.10996 0.23085 -0.29421 -0.10422 -0.47339 0.10213 0.52729 -0.24119 -0.023363 0.29912 0.52007 -0.093154 -0.046776 0.15121 0.18863 -0.37512 0.31483 0.232 0.46864 -0.42457 0.31218 -0.16094 -0.062941 0.56029 -0.47295 0.014439 -0.17532 -0.15159 -0.45625 -0.011099 0.3979 0.13834 -0.28696 -0.015771 0.061882 0.38502 -0.024617 -0.082672 -0.0089632 -0.41815 -0.23053 -0.04218 -0.32006 0.20131 0.013758 -0.34556 -0.076544 -0.98055 0.62655 0.23729 -0.019233 0.10635 0.2092 -0.34759 0.26238 -0.1737 0.29949 0.0052816 -0.092689 -0.19369 -0.12726 -0.16482 0.5043 -0.1048 0.09287 -0.040258 0.33348 0.063071 0.12638 0.25714 0.32347 0.15558 0.18982 0.024023 -0.085871 0.33083 0.21083 0.031123 -0.25492 0.010911 -0.32134 -0.24928 -0.9577 0.44813 -0.137 -0.1121 0.024373 -0.098638 -0.29589 0.28738 -0.23331 -0.0082537 -0.29041 0.44826 -0.37469 -0.12026 -0.31686 0.14882 0.43101 0.021512 -0.42048 -0.23727 0.25844 0.11477 -0.4841 -0.1557 1.1182 -0.13001 0.027787 -0.16911 0.27294 0.01977 -0.15469 0.046136 0.7037 0.27699 0.14454 0.20653 -0.16397 0.10077 0.225 0.64624 -0.13743 0.30835 -0.42716 0.040978 0.34268 -0.25921 -0.089758 0.076785 -0.43205 -0.14207 -0.30006 -0.10261 -0.18373 -0.21452 -0.052693 0.15477 -0.16794 -0.017868 0.65062 0.42344 -0.054993 -0.21508 -0.068112 -0.067424 0.06167 0.25465 0.21605 0.2359 0.10182 0.1081 -0.14055 -0.63578 -0.0097338 0.034432 0.27229 -0.45187 0.078901 -0.011022 -0.46513 -0.23006 0.07992 -0.12079 -0.016368 0.31661 0.096498 0.55024 0.10821 0.058824 -0.23048 -0.14298 -0.36613 -0.10686 0.22641 0.34341 0.063033 0.20644 0.05541 -0.06309 0.033285 0.061457 0.45574 -0.3244 -0.41296 -0.098249 0.29855 -0.6304 -0.19805 -0.25635 0.052872 0.18171 0.35115 0.019733 -0.83144 0.15204 0.014666 -0.14436 -0.17416 0.20692 -0.18512 0.20292 -0.39824 0.091271 0.26998 0.2075 0.10564 -0.74357 -0.42152 0.31845 0.50161 0.31216 0.39715 0.17883 -0.18653 -0.038028 -0.37758 -0.34065 0.19523 0.23181 0.06494 0.19388 -0.41444 0.28242 0.092354 0.17485 -0.055804 -0.41657 0.44469 -0.29094 0.24373 -0.29707 -0.27328 -0.11155 0.11201 -0.14127 -0.043306 -0.3583 0.14203 -0.055428 0.035047 0.22569
show -0.33634 0.51621 -0.083952 0.078608 -0.19622 -0.15356 0.25555 0.040433 -0.22143 2.3273 -0.077948 -0.013022 0.2034 0.12533 0.37488 0.26709 0.11695 0.79987 -0.25083 -0.48155 0.37559 0.07221 0.30542 -0.10212 0.21811 0.19851 -0.38213 -0.16157 -0.30486 -0.099389 -0.21495 -0.092113 -0.061525 0.4891 0.15011 0.36645 -0.19863 0.2427 -0.1751 -0.19945 -0.45395 0.039965 0.12066 0.14608 -0.39583 0.050806 0.0097477 -0.35561 0.17933 -0.38099 0.40194 -0.1009 0.37111 -0.27594 -0.23157 0.24471 0.19688 -0.18171 -0.1102 -0.42545 -0.37019 0.074409 -0.23215 0.23418 0.26919 -0.2574 -0.021616 -0.11324 0.13783 0.20604 0.42066 0.30597 0.22683 -0.29484 -0.044299 -0.18727 0.20593 0.052394 0.19458 0.33298 -0.12531 0.16843 -0.49698 -0.21268 0.11991 -0.21871 -0.4841 -0.27619 0.22226 -0.24373 -0.31661 0.34994 0.2658 0.09729 0.30801 -0.010356 -0.15006 0.51924 0.35982 -0.020211 -0.089106 0.28529 -0.24744 -0.24281 0.10632 -0.33779 0.32901 -0.31305 -0.17387 -0.14245 -0.39523 0.0082783 0.17134 0.51679 0.33837 0.086626 0.21711 0.21958 0.55737 -0.024518 -0.44392 -0.074624 0.004048 0.084685 -0.25381 -0.26185 0.16717 -0.25869 0.069577 -0.38245 0.18953 0.046314 -0.29138 0.0086513 0.11452 0.091695 -0.28717 0.045909 0.27834 -0.42077 -2.0083 -0.42744 -0.035916 -0.15141 0.11252 -0.13934 0.16781 0.10572 0.10235 -0.041329 0.085575 0.16922 0.047024 -0.20076 -0.15302 -0.48751 -0.018014 -0.061881 -0.43191 -0.30115 -0.28246 -0.43793 0.037566 -0.43886 0.019204 0.25512 -0.36427 0.081221 0.30415 -0.29873 0.17325 0.093736 -0.10841 0.28199 -0.3546 0.21336 -0.29244 0.45839 -0.14464 0.5057 -0.045404 0.37604 0.086284 0.36143 -0.07871 0.2724 -0.21306 0.25801 0.056394 -0.12825 0.36986 0.03364 -0.49212 -0.0806 0.15067 0.41347 -0.37418 -0.056687 0.04007 0.19217 -0.49351 -0.047379 0.017726 0.22475 0.32424 0.16856 0.10595 0.40926 0.037351 0.014435 -0.17063 -0.081197 -0.28977 -0.25755 -0.52798 0.6886 0.039069 -0.23489 0.23803 0.039078 0.49812 0.14587 -0.11627 0.030953 0.2591 0.52213 0.072449 0.29061 -0.0076358 0.58708 -0.0080983 0.22102 0.69071 0.0076197 -0.14001 -0.021151 -0.1653 -0.13911 0.11144 0.057318 0.21278 0.20477 0.20198 -0.20603 0.17338 -0.37775 -0.0898 0.12945 -0.45944 0.34346 -0.11283 0.11515 0.18216 -0.29135 -0.10435 0.085861 0.5532 0.089264 -0.0075846 -0.42494 0.45533 0.62851 -0.13037 0.18661 0.018686 0.072132 0.52609 0.5501 0.5847 0.45707 -0.63458 0.081497 0.11091 -0.15451 0.16688 -0.072351 -0.14012 -0.23899 -0.35569 0.61438 0.3214 0.1499 -0.47276 0.20521 -0.38982 0.28677 0.19857 0.33745 0.095596 0.24674 -0.35071 0.18965 -0.23019 -0.19871 0.090766 -0.79505 0.046842 0.079306 0.20372 0.044059
forest 0.30399 0.20476 -0.5905 -0.51327 -0.29726 0.67423 0.28085 0.34539 -1.0794 2.0834 -0.85466 -0.26107 -0.72149 -0.36657 -0.37801 0.76503 0.75496 1.1661 0.25719 -0.21004 0.26184 0.19517 -0.32738 0.22664 -0.55406 0.027205 0.19105 0.333 -0.033288 0.039738 -0.37443 -0.07185 0.19373 -0.48355 0.058196 -0.045767 0.16574 -0.053094 -0.52702 -0.41678 0.54077 0.038093 0.3236 0.086183 0.15705 0.026728 -0.18465 -0.12614 0.15903 0.01042 0.31574 0.18873 0.047747 0.13671 0.3842 -0.3654 -0.56188 -0.007564 0.059865 0.26766 0.26524 0.59483 -0.24505 0.22027 -0.37984 0.070984 -0.45687 -0.35283 0.0047256 -0.42042 -0.37721 -0.0147 -0.093092 0.43402 0.67249 0.34776 0.085222 0.22047 0.33364 -0.44543 0.29387 0.13989 0.34243 0.63924 0.0044589 0.19057 0.25816 0.63272 -0.34757 0.18456 -0.38666 0.23513 0.12545 -0.4208 -0.13657 0.17219 0.12798 0.37757 -0.23572 0.49594 0.31552 0.12458 -0.44977 0.1926 -0.24581 -1.2937 -0.27637 0.37122 0.30526 -0.28549 0.5058 -0.036865 -0.57515 -0.42819 -0.1643 -0.043294 0.47439 0.43445 -0.32729 0.17999 -0.061942 -0.27561 -0.069448 -0.84398 -0.53171 -0.071415 0.19813 0.11903 -0.61417 -0.18422 0.11647 -0.50703 0.47577 -0.12782 0.18244 0.039864 0.0045483 -0.52709 0.91177 0.55398 -1.3508 0.45788 -0.49781 -0.11423 0.22714 -0.092607 -0.054764 0.31447 -0.21137 -0.14935 -0.94061 -0.19746 -0.0019673 -0.29696 -0.13799 0.77218 0.093105 0.3423 0.19869 0.76951 0.4457 0.65537 -0.63614 0.91651 -0.3453 0.12658 -0.24695 -0.449 0.13259 0.30596 -0.1187 0.49439 -0.5316 0.38446 0.32677 0.70435 0.91134 -0.4242 0.49311 -0.43412 0.18086 0.21495 0.010869 0.080779 -0.10338 -0.099277 -0.49544 -0.29796 0.72049 0.16117 0.011004 0.45899 -0.39508 0.22672 -0.43998 0.035328 0.35195 -0.10494 -0.17307 -0.038351 -0.57055 0.22603 -0.24203 0.43598 -0.031867 0.37556 0.11971 0.38925 0.51849 -0.83518 0.38212 0.25212 0.041745 -0.18192 -0.053979 -0.35659 0.04429 0.1505 0.56863 0.01544 -0.10399 -0.035867 0.20589 0.10666 -0.35159 0.17967 0.31513 0.10242 -0.55289 0.70573 -0.0033981 -0.1465 -0.24757 0.0035964 0.033438 0.12499 -0.27964 -0.64338 0.021614 0.09036 -0.24742 -0.39782 -0.31211 -0.41187 -0.38105 -0.12666 -0.17608 0.14946 0.061064 -0.62404 0.12347 -0.1355 -0.03898 0.79155 0.17615 0.68419 0.26077 0.28471 0.047177 -0.030837 -0.034427 0.070026 0.78718 -0.26927 0.67772 -0.85169 -0.18318 -0.52891 -0.40305 0.011819 -0.86201 0.040532 0.0023188 -0.6097 0.30508 0.45735 -0.089778 0.27534 -0.42743 -0.19857 -0.021853 -0.21041 -0.19031 -0.22472 0.34057 -0.25386 0.15588 0.19937 -0.094757 -0.52188 -0.32973 0.25152 0.36178 -0.1359 -0.56918 0.31088 0.22029 0.11617 -0.0045391 -0.14119
compound -0.32106 0.16415 -0.35713 0.062909 -0.29571 0.23262 -0.17887 0.1971 -0.37116 0.96722 0.096309 -0.41166 -0.50631 0.20285 0.21157 0.09195 0.62858 2.1267 -0.34208 0.047664 -0.057258 -0.21454 -0.037695 0.87753 -0.46697 -0.31898 -0.43981 -0.33218 0.0027131 -0.24451 0.21258 0.44021 0.55004 0.32802 -0.0007632 0.27224 0.62928 0.0018552 0.10826 -0.35226 0.55818 -0.92096 0.56094 -0.39404 0.30323 -0.40982 -0.0644 -0.33381 0.16476 0.13703 0.090882 0.20719 0.11246 0.58328 0.45339 -0.46273 -0.52559 -0.18589 -0.50936 0.36349 -0.29061 0.55251 -0.31854 0.92265 -0.11766 -0.37665 -0.66985 0.43439 -0.46689 -0.049076 -0.73659 -0.13081 -0.22891 0.41995 -0.26901 -0.12491 -0.1179 -0.24327 0.027225 -0.18612 -0.10044 -0.053371 -0.36061 -0.46467 -0.45762 0.40716 -0.066405 0.23435 -0.38781 0.38387 0.50142 0.72687 -0.43987 -0.91859 0.22846 0.42027 0.25435 -0.28659 0.12001 -0.32297 0.33491 0.27887 0.70947 0.02523 0.059889 -2.1399 0.22124 -0.072622 -0.079007 -0.090675 -0.34888 0.057063 -0.15588 0.56343 -0.17649 -0.33323 0.014611 0.228 0.2463 -0.15779 0.071966 -0.28918 -0.23922 -0.48985 0.16849 0.07954 -0.14592 -0.3634 0.2583 -0.29848 0.0073774 0.016556 0.11564 -0.012451 -0.37183 0.061148 -0.42481 -0.076432 0.20775 -0.31458 -0.2446 0.21587 0.045778 -0.3141 -0.30519 -0.21097 0.23722 0.17313 1.0902 -0.42635 0.17655 -0.057801 -0.31653 0.12609 -0.1054 -0.35978 -0.38936 -0.19191 -0.84157 -0.15265 0.14815 -0.66454 -0.11748 0.45274 -0.050517 -0.30211 -0.23277 -0.36264 -0.29083 0.068684 0.71144 -0.22465 -0.61362 -0.073029 -0.30918 -0.33725 -0.13485 -0.24756 0.056321 -0.23292 -0.24758 0.31317 -0.12964 0.10964 -0.15739 -0.61363 0.44564 0.52964 -0.30175 0.011001 -0.12714 -0.20542 0.1733 0.52599 0.40412 -0.042491 -0.13107 -0.2341 -0.91357 -0.45025 0.16388 -0.035367 0.81169 -0.0059112 -0.038215 0.13894 -0.0091192 -0.45562 -0.13949 -0.35947 0.24494 0.2152 0.69611 -0.13075 -0.35781 -1.0389 0.07308 0.16855 0.069755 -0.090996 0.072755 0.073653 -0.86011 0.59601 -0.2311 0.11518 0.048088 0.14206 0.22843 0.43445 0.3314 -0.10264 0.24527 0.1034 -0.2074 -0.26893 0.11596 0.88274 -0.060316 -0.0045075 -0.42014 0.39954 0.21019 0.12446 0.087047 -0.56507 0.0025966 -0.15233 0.11775 -0.45012 0.08736 0.48087 0.012428 0.10125 0.372 0.73439 0.1355 -0.26717 0.082993 0.21225 -0.048482 -0.67028 -0.46356 -0.061204 0.27975 0.73869 -0.17424 -0.21848 -0.027242 0.12071 0.80376 -0.23316 -0.47024 -0.11258 -0.16647 -0.39072 0.23336 0.16425 -0.52362 0.55568 0.0061959 0.16136 -0.10654 -0.35087 -0.43303 0.079079 -0.024511 -0.078145 0.1909 0.24755 0.24916 -0.23124 -0.14395 -0.18182 -0.29995 -0.24085 -0.30825 0.21136 0.064655 0.23416
vary -0.42281 0.42148 0.065182 -0.2834 -0.094148 -0.57444 -0.2831 -0.31155 0.015091 1.3616 -0.07385 0.3082 -0.14938 0.1478 0.63537 -0.010338 0.0898 2.0718 0.11614 -0.74333 -0.34454 -0.16646 -0.36333 -0.30079 -0.054992 0.078897 -0.49586 0.012027 -0.30721 0.05194 -0.22076 -0.085445 -0.0030574 -0.32298 -0.032742 0.18479 -0.27475 0.042328 0.27052 0.40901 -0.0949 0.19325 -0.30718 0.24397 -0.24458 0.053685 -0.073147 -0.52118 -0.033187 0.19881 -0.31434 -0.32203 0.23784 0.20635 0.10811 -0.024635 -0.039058 -0.29805 0.39889 -0.26904 0.23762 -0.054144 0.067985 0.40176 -0.32709 -0.1069 -0.22652 0.40194 0.19856 0.13612 0.14657 0.11982 0.51107 -0.076153 0.59027 0.26537 -0.19781 0.04138 -0.11855 -0.29741 0.012276 0.12166 -0.066533 0.049168 0.6783 0.15865 0.18603 1.0109 0.78979 -0.17995 -0.086693 -0.061094 -0.15499 0.13795 -0.020574 0.025899 0.11719 -0.28509 -0.30771 0.077675 0.036321 -0.013062 0.095135 0.33813 0.25292 -1.7225 -0.20521 -0.48674 -0.50045 0.14371 -0.34105 -0.61581 0.18135 0.15532 0.0054694 -0.24738 0.075764 -0.36028 0.23963 0.52624 -0.36779 -0.17322 -0.0011077 0.15023 -0.28199 0.040404 0.083167 0.15475 -0.17014 -0.1628 0.37591 -0.18341 -0.22933 0.60996 -0.19068 0.099973 -0.2136 -0.15552 0.34157 0.45089 0.3658 0.47575 0.091502 -0.18545 0.078824 0.26461 0.10265 0.14475 0.050251 -0.03653 0.15147 -0.046587 -0.030443 -0.17379 0.15614 -0.4267 0.034104 0.053421 0.073818 -0.42206 0.52648 -0.068156 -0.15249 -0.066659 -0.15348 0.34846 0.26418 0.11487 -0.015744 -0.094151 0.15274 0.13581 0.38632 -0.40256 -0.24591 -0.012364 0.40322 -0.036431 0.3307 0.28993 0.448 0.25413 -0.65968 -0.021956 -0.1668 0.18112 -0.47364 -0.31617 0.21902 0.69666 -0.010248 0.5195 -0.30864 -0.46925 -0.38704 -0.2127 -0.089135 0.43843 -0.20267 0.13456 0.4257 -0.43396 -0.35922 -0.050822 -0.45751 -0.45116 -0.29033 0.25297 0.19091 0.21305 0.19767 0.21685 0.16363 -0.26558 -0.026768 0.42342 0.24602 0.53366 -0.0013542 0.34853 0.4897 0.1974 0.30894 -0.63148 -0.051735 0.1544 -0.15489 0.051031 -0.2457 0.36391 -0.35268 -0.1552 0.33466 0.10786 -0.056251 0.11718 -0.48757 -0.38457 -0.40501 0.4236 -0.23071 0.64501 0.16042 -0.28207 0.33948 -0.070098 -0.045892 -0.14611 -0.40815 -0.12359 0.040338 -0.11662 -0.34947 0.22637 -0.20876 0.9766 0.28037 -0.23493 0.33628 -0.077548 0.059109 -0.1086 -0.36542 -0.43805 -0.58495 0.22051 0.119 0.55526 0.39013 0.08315 -0.29648 -0.12514 0.34365 -0.046357 -0.33216 0.24515 -0.082548 0.037834 0.037254 0.88029 0.40695 -0.082627 0.066712 -0.26859 -0.15402 -0.0043011 -0.24077 0.19521 0.55309 0.058382 -0.35556 0.12369 -0.46408 -0.062533 -0.072307 0.16563 -0.44667 -0.20673 0.50443 -0.074474
focus -0.19494 0.25968 -0.064193 0.033943 0.22252 -0.37443 -0.1727 0.50474 -0.17374 2.5123 -0.70309 0.062989 0.22387 -0.33154 0.40138 -0.075616 0.078409 1.4301 -0.62846 0.10767 0.14386 0.19297 0.23893 -0.49919 0.19689 0.23088 0.38416 -0.048632 -0.24088 0.097673 -0.34257 -0.056269 -0.025567 -0.13635 0.16383 -0.063948 0.10521 -0.19955 -0.050902 -0.20626 0.087706 -0.15425 -0.42622 -0.036486 -0.0046437 0.04963 0.026165 0.20489 -0.56847 0.16038 0.14366 -0.084958 -0.11499 -0.013756 -0.01248 0.17155 -0.37761 0.060699 0.19663 -0.24231 -0.19933 -0.25078 0.26711 -0.16356 0.35492 -0.63723 0.095283 0.092668 0.036189 -0.23417 -0.13443 0.024587 -0.10374 0.082202 -0.14027 -0.16996 -0.30625 -0.0043926 0.24379 0.02527 -0.13781 -0.045753 -0.056645 0.25088 -0.18534 -0.12629 -1.3429 0.14928 0.58786 0.15718 -0.083437 -0.14517 0.17739 0.189 0.1682 -0.096838 0.28414 0.15287 0.14198 0.062336 0.073058 -0.38971 -0.20944 -0.47788 0.25431 -1.6427 0.24492 -0.23804 -0.38585 0.28812 -0.16843 -0.10957 -0.12625 -0.20347 0.026967 -0.16568 0.18765 -0.29174 0.24051 0.29977 0.25366 -0.018709 0.096731 0.483 0.43171 -0.098078 -0.16517 -0.37482 -0.24027 -0.2737 0.16425 0.25258 0.10036 0.053528 0.1808 -0.23239 -0.051695 -0.078098 -0.39741 -0.11472 -0.41426 0.078328 -0.027401 0.099991 0.0045842 0.01613 0.28543 0.095068 -0.073819 0.0024985 -0.0078204 0.033475 0.32831 0.25419 -0.17196 0.15799 -0.10075 -0.38958 -0.28798 -0.45713 -0.27142 0.21115 -0.30888 -0.066963 0.21273 -0.036358 -0.075768 0.039918 0.27662 -0.19629 -0.15326 -0.19872 0.063091 -0.15552 -0.093444 0.10792 0.20936 0.24941 0.4625 0.21423 0.11247 -0.011342 0.22451 0.036807 0.072449 -0.00036349 -0.23216 0.16139 -0.12947 0.12932 0.092224 -0.11892 -0.092175 -0.24598 -0.18096 0.039068 0.031833 -0.15033 0.028925 0.2578 0.0054444 -0.12592 -0.023984 0.21846 -0.36692 -0.2882 -0.16376 -0.009311 -0.088994 -0.21364 0.083071 -0.18353 0.075839 -0.19899 0.21378 0.057568 -0.016417 -0.25632 -0.096553 -0.078608 0.44948 -0.5039 -0.44258 0.23117 -0.35448 0.11836 0.1231 -0.43336 0.3337 -0.21205 -0.62155 0.058759 0.0076797 0.060612 0.015601 0.13672 -0.058471 0.074129 0.44494 0.054584 0.064673 -0.231 0.18338 -0.068487 -0.3584 0.09531 -0.49886 -0.0019176 0.023347 -0.031135 -0.17741 -0.32556 -0.569 -0.0072142 0.01457 -0.18172 0.051806 0.22128 -0.003069 0.087092 0.19011 0.011118 0.069137 0.1818 0.28936 -0.57897 -0.20892 -0.0023727 0.58597 0.19168 -0.41732 -0.14685 -0.3345 -0.7794 0.1609 0.14529 0.3547 0.033195 0.17075 0.57703 -0.16253 -0.10416 0.0366 -0.19753 0.12743 -0.34654 -0.098836 -0.092274 -0.17835 0.04558 -0.34693 0.13922 -0.011161 -0.25485 -0.30494 -0.19908 -0.41636 -0.10678 -0.15814 0.20812
interrupt -0.30595 0.31096 -0.099713 0.1919 -0.26436 0.55537 -0.13297 -0.077008 -0.12591 0.82042 0.14938 -0.77431 0.35686 0.11522 -0.10124 -0.28072 0.31031 1.1151 -0.65839 -0.038604 0.16057 0.36354 -0.4124 -0.35219 -0.024724 -0.48067 0.33394 -0.099701 -0.30714 -0.21585 -0.61434 -0.042402 -0.3323 -0.3044 -0.2049 0.4707 -0.027614 -0.37079 0.1428 -0.14737 0.042026 -0.29978 -0.15606 0.14558 -0.50087 -0.39898 0.0013384 0.29452 -0.52864 -0.34421 0.12241 -0.49674 -0.019692 0.2724 0.077179 0.073425 -0.14126 0.21285 -0.17523 -0.07178 -0.1246 1.3136 -0.1975 -0.66539 0.37768 0.50507 0.051696 -0.18772 0.39842 -0.13667 0.65633 0.13835 -0.1037 -0.58789 0.13859 0.15568 -0.078121 -0.11472 -0.13434 0.16627 0.43378 -0.44687 -0.91253 -0.20709 0.3509 0.32012 0.77675 -0.12132 0.096265 0.10411 -0.62036 0.29568 -0.013864 -0.01196 -0.76833 -0.44478 0.12712 0.047442 0.2398 0.17368 -0.31461 -0.21957 0.35164 0.4159 0.26479 -1.7134 0.42952 0.34435 0.10056 0.21949 0.39783 0.43086 0.073002 0.48117 0.21338 -0.79142 -0.22598 -0.17759 -0.37598 0.2372 -0.27501 -0.55809 0.0013508 0.27736 0.41912 0.24505 -0.019271 0.051059 0.49503 0.11886 -0.02815 0.73 -0.35018 0.15948 -0.13537 -0.12341 0.21668 0.52449 -0.022005 0.24236 -0.54563 -0.037913 -0.60929 0.12513 0.18881 0.97945 -0.022924 -0.52044 -0.21702 0.18641 -0.30623 0.44329 -0.08005 0.44678 -0.046194 -0.20096 0.35706 0.12471 0.3878 -0.34583 -0.86469 -0.12618 0.16956 -0.019435 0.18988 0.01951 0.26936 0.21876 0.039556 -0.55906 -0.095476 0.07498 0.56214 -0.45329 0.24393 0.22109 0.34583 0.082154 -0.22418 0.098008 0.046126 -0.32157 0.14898 0.12551 -0.21817 0.2116 0.54438 0.36743 0.037816 0.19158 0.30136 -0.024643 -0.40342 0.11132 -0.17259 -0.070964 0.042863 -1.2738 -0.24381 -0.085774 -0.81187 0.47234 0.11829 -0.16368 0.34459 -0.049481 -0.21417 0.013331 0.12879 -0.17861 0.55207 -0.13678 -0.20163 0.45207 -0.2302 0.028066 0.086883 0.16471 -0.28449 -0.052577 0.087569 0.32361 0.028575 -0.054921 -0.13263 -0.16827 1.0124 -0.0012984 -0.11223 -0.18727 0.16848 -0.1172 0.47241 0.63009 -0.93321 0.11707 0.25049 -0.67273 -0.22531 0.13762 0.40521 0.26287 0.58423 -0.24583 -0.1241 -0.62872 0.18406 0.41934 0.24899 0.35233 -0.89112 0.012345 -0.66013 0.10675 -0.2636 0.029525 0.21264 -0.65112 0.022994 0.53601 -0.12694 0.25394 -0.16084 0.072368 0.43491 0.47247 0.128 0.16901 0.78102 -0.47111 -0.16123 0.261 0.14462 0.18461 0.47433 0.55637 0.0049801 -0.16725 0.61048 -0.030038 0.7311 -0.15309 0.31836 0.016322 -0.026048 -0.38073 0.039805 -0.21222 -0.20998 0.27436 0.20647 0.39273 -0.77378 0.37249 0.0073504 -0.071826 -0.2353 -0.20915 -0.59875 0.12656
determine 0.0089857 0.41503 -0.35475 0.24298 -0.38163 -0.13472 -0.19065 0.15625 0.273 2.4271 -0.53684 0.050794 0.08729 0.29614 0.20364 -0.25537 -0.18866 2.0726 -0.35097 -0.25912 0.25709 -0.26918 -0.38822 -0.04832 0.0091514 0.34276 -0.054643 0.013053 -0.013795 -0.13096 0.026712 -0.091643 0.56018 0.14909 -0.1494 0.013473 0.21492 0.25354 -0.46219 -0.42852 -0.40594 0.047333 0.086867 -0.2457 -0.12359 -0.54364 -0.13878 0.0085979 -0.39033 -0.12215 -0.072118 -0.21658 -0.017496 -0.094303 0.080576 0.083151 0.029826 -0.44434 0.15889 0.10116 0.41538 0.08418 0.024312 0.49966 0.037921 0.261 0.19637 0.0050424 0.13364 -0.29655 0.17792 0.35285 0.44225 -0.29697 0.089089 -0.050871 -0.17656 -0.30831 0.023185 -0.26106 0.022375 -0.049423 -0.2016 0.041892 0.38927 0.037077 -0.22493 0.22585 0.12702 0.20028 -0.14493 0.049354 -0.36766 0.21225 0.048333 -0.15939 -0.35822 -0.19269 -0.14592 0.45811 0.14341 0.2104 0.63209 0.30413 0.16085 -2.1089 -0.121 -0.22214 -0.093293 0.16025 0.1418 0.022263 0.22802 0.24687 0.40437 0.091123 -0.092714 -0.088541 -0.1015 -0.10451 0.13348 -0.11819 -0.016468 0.19924 0.036858 -0.036277 -0.048209 0.043654 -0.32304 0.075255 0.14529 0.443 -0.12248 -0.15736 0.035883 0.037843 0.2715 0.05395 0.45802 0.10664 0.26927 0.041693 -0.46391 0.039298 0.089856 -0.1274 0.15407 -0.06002 0.11766 -0.057008 0.049285 -0.12609 -0.50099 -0.12876 -0.12579 0.013562 0.056648 0.1426 -0.26811 -0.034255 -0.19255 0.11664 -0.20828 -0.26883 -0.067797 0.058268 -0.0045281 0.098275 0.28302 0.5052 0.012922 -0.20101 0.19387 -0.31522 -0.18073 0.25992 0.35583 -0.0023382 -0.030775 0.27335 0.093432 -0.02459 -0.070836 0.30992 -0.025149 0.50136 -0.35753 0.19579 -0.34407 0.14299 0.031686 -0.024997 -0.13357 -0.065713 0.21236 0.48059 -0.3156 0.097616 0.018519 0.33024 0.06122 -0.036754 -0.077006 0.49265 -0.48024 -0.095507 0.096284 0.46072 0.37759 0.39191 0.25744 -0.14582 -0.63441 0.0858 -0.25836 -0.19664 -0.28189 0.22244 -0.26905 0.13848 0.59891 -0.052147 0.013411 -0.46252 0.053684 0.48506 0.023578 -0.09039 0.19928 -0.061777 -0.079567 0.055989 0.083913 0.22377 -0.43512 -0.10861 -0.063538 -0.10895 -0.19561 0.0020998 0.11775 -0.16591 0.53006 -0.1548 -0.19548 -0.32777 0.30292 -0.1494 -0.16865 0.12379 -0.18047 -0.04385 -0.14532 -0.19734 -0.2509 0.28753 0.041144 -0.024612 0.55961 0.075507 -0.14713 0.070295 -0.26461 -0.28586 0.10589 0.1514 -0.16864 0.46588 0.91407 0.51293 0.40594 0.29992 0.28545 -0.0041478 0.043815 -0.16573 -0.26813 0.61568 -0.41016 0.098149 -0.10426 0.3956 -0.054156 -0.32569 -0.032327 0.021059 -0.39858 0.1873 0.31741 -0.064484 -0.0066477 0.21681 -0.19954 -0.2596 0.09531 -0.63167 -0.23828 -0.26034 0.60011 -0.18141
suspend 0.21014 0.14576 -0.16541 0.55137 -0.008322 0.17343 -0.38928 -0.23221 -0.10424 1.5947 0.019146 -0.14929 0.31807 0.036989 -0.28024 -0.63579 -0.096477 0.51642 0.11458 -0.21813 0.31935 -0.057971 0.028315 -0.29501 0.052457 -0.62546 -0.65028 -0.30622 0.072001 -0.24844 -0.67211 -0.35327 -0.25533 -0.064204 -0.1335 -0.22517 -0.16243 -0.095335 -0.037262 -0.27347 -0.29891 -0.42791 0.26986 0.51478 -0.056566 -0.69028 -0.13064 0.3455 -0.53856 -0.40894 0.23239 -0.36956 0.24968 -0.26495 0.22524 0.26891 -0.24986 -0.21919 -0.26169 0.21361 -0.044385 0.19509 0.094897 -0.54351 -0.032257 0.10308 -0.11721 -0.62856 -0.14132 -0.073492 0.37434 0.11864 -0.31268 -0.0055072 0.29506 -0.1215 -0.10106 0.19198 0.08115 0.12354 -0.16817 -0.34506 -0.78034 -0.00663 -0.45428 0.38778 0.59067 0.12339 0.69017 0.012622 -0.21824 -0.014206 -0.2467 0.17726 -0.32415 0.21739 -0.13918 -0.20901 0.64123 0.29126 0.49546 0.020864 0.1216 0.18566 0.24577 -1.635 0.10024 0.21948 -0.19008 0.13866 -0.036903 0.49339 -0.42664 -0.058072 0.094213 -0.20823 0.089794 -0.13385 0.17747 0.065989 -0.069282 0.027155 0.60156 0.28833 0.16408 0.0088871 -0.41412 0.53714 0.62031 0.75343 0.10859 0.28349 -0.055843 -0.16299 -0.26281 0.42557 0.42755 0.2465 -0.16833 0.34235 0.039182 0.080402 -0.43253 -0.16604 0.42582 0.78912 0.55844 0.063465 0.026201 -0.29072 0.56405 0.95763 -0.34095 -0.017579 -0.072505 -0.0042375 0.21406 -0.22543 0.36411 0.36014 -0.032368 -0.088916 -0.085139 -0.01098 -0.55866 0.29833 0.40347 -0.36149 0.027114 -0.024905 -0.10827 -0.20666 -0.019481 -0.049261 0.48187 0.084937 0.3039 -0.15266 0.07777 0.27066 -0.15284 0.21558 -0.079329 -0.24991 -0.1788 -0.043094 0.16646 -0.032932 -0.036779 0.10579 -0.078707 -0.099337 -0.25301 -0.061366 0.13845 0.22414 -0.080766 -0.018972 -0.14697 0.0097112 -0.2677 0.3737 -0.22152 -0.32019 0.54789 0.07022 -0.32904 0.15835 0.35666 0.11875 0.47428 0.36087 0.25747 0.32446 -0.27699 0.87021 -0.47418 -0.033102 -0.25727 -0.0093464 -0.019887 0.50314 -0.094063 0.10437 -0.083664 0.21016 -0.35794 -0.072529 -0.018296 -0.20329 0.6474 0.46315 0.007199 1.1123 -3.7177e-06 -0.16943 -0.1767 0.22327 0.17519 0.14314 0.60193 0.3183 0.61784 -0.44654 -0.17814 -0.35042 -0.12563 -0.36801 -0.20188 0.42809 -0.4694 0.04126 -0.19725 0.20237 -0.33553 0.14186 -0.77263 0.0058253 0.1528 -0.34748 0.45437 0.43131 0.34621 0.2931 -0.16714 -0.20105 0.054137 -0.18222 0.35095 -0.66585 1.079 0.19622 0.64411 0.77641 0.4392 0.22214 -0.058951 0.26498 0.7422 -0.16335 -0.42201 -0.48373 0.46849 0.58686 -0.21965 -0.4371 0.12962 0.17582 0.022138 -0.15048 -0.11016 -0.074166 -0.21136 -0.16702 -0.34888 -0.60895 0.10353 -0.15268 0.067717 -0.071955
kill -1.0911 0.14547 -0.37389 -0.062068 -0.32742 -0.27241 -0.37873 0.15486 -0.08438 2.211 0.03111 -0.21269 -0.23802 0.32374 -0.2944 -0.45489 -0.13768 0.33879 -0.64108 -0.070605 0.13342 0.69669 -0.096043 -0.29275 -0.33647 0.011866 -0.48015 -0.35019 0.25912 -0.18455 -0.4154 0.17896 -0.39368 0.1012 0.42508 -0.26442 0.40208 -0.076716 0.23972 0.19779 -0.021092 -0.29003 0.047926 -0.55226 0.3263 -0.48872 -0.1431 0.54003 0.11258 0.15622 0.089274 0.077604 0.052303 0.15905 -0.17896 0.13508 -0.51297 0.022678 0.22664 0.55898 -0.11408 0.21707 0.095957 -0.1158 0.81094 -0.14144 -0.17296 -0.39571 0.4406 -0.51867 -0.08799 0.38071 -0.31272 -0.27654 -0.0080943 -0.38803 0.062411 -0.67152 0.38239 -0.016144 -0.10289 -0.24194 -0.008227 0.0094699 -0.073704 0.2582 0.3946 -1.0566 -0.11729 0.21888 -0.0071494 0.28314 0.33136 -0.14898 -0.30946 -0.57116 0.2091 -0.18469 -0.48677 0.16599 -0.048941 0.70382 0.47678 0.089574 -0.16162 -0.86088 0.19399 0.2531 -0.087555 -0.057097 0.28128 -0.13952 -0.22552 -0.25243 -0.043253 0.33737 0.40443 -0.35386 -0.47371 -0.028511 -0.11168 -0.47252 0.55975 -0.64687 -0.013922 -0.33263 -0.41875 -0.30098 -0.06257 0.2085 -0.70949 0.16118 0.17204 0.046935 -0.19649 -0.32147 0.11819 0.027952 0.030765 0.19029 -2.5907 -0.042802 0.10542 -0.022261 0.18567 0.54486 -0.072002 -0.12723 -0.0091939 -0.41763 -0.14565 0.33794 0.32777 0.023259 -0.033184 0.13884 -0.50448 -0.13652 0.16976 0.23782 -0.097845 -0.56499 -0.09139 0.23308 0.42593 0.017445 0.051353 -0.26819 -0.15891 0.10748 0.23296 0.075289 0.27563 -0.21975 0.34396 -0.040265 -0.33234 -0.19838 0.24468 -0.11517 0.24339 0.21358 -0.49021 0.0061624 -0.051385 0.09821 0.42641 -0.17655 0.17698 0.36726 0.40899 0.019719 -0.45585 0.32013 0.27854 0.26766 -0.29087 -0.26659 0.27302 -0.47268 -0.37193 0.18509 -0.080064 -0.32155 0.40551 0.20264 0.36714 0.66634 0.13591 -0.48543 0.14483 0.08927 -0.12033 0.31017 0.12952 -0.79693 -0.023988 0.2486 -0.256 0.031238 0.24489 0.17968 -0.3962 -0.20417 -0.18414 0.19695 0.39522 0.46274 -0.12574 0.036818 -0.29218 -0.25815 0.31973 -0.36326 -0.29974 -0.17931 0.43361 0.20832 0.028452 -0.032604 0.1162 0.12873 -0.041121 -0.092572 0.27175 -0.43967 0.018088 0.21531 0.31837 -0.023452 -0.37634 0.30351 -0.14192 0.085568 0.041485 0.33227 -0.075202 -0.29881 -0.089729 -0.32477 -0.22526 0.35056 0.13774 -0.009031 -0.095498 -0.32963 -0.064202 0.2845 0.15968 0.52426 0.81465 -0.22671 0.10102 0.18584 0.1634 0.3964 -0.38405 0.57032 0.30491 0.20207 0.24972 0.19011 -0.19791 -0.73517 0.1072 -0.16716 0.61886 -0.66559 0.084381 -0.31665 -0.24309 -0.25472 -0.56851 0.17824 -0.23954 0.17998 -0.50629 -0.19296 0.042872 0.043685
shake -0.12998 0.043092 0.14162 0.18738 0.37602 -0.048714 -0.77556 0.36492 0.20082 1.515 -0.092647 -0.21571 0.0056146 -0.25816 0.21928 -0.017251 0.0074173 0.61919 -0.24654 0.19765 0.39506 -0.083814 0.20076 -0.058284 -0.28624 -0.35536 -0.3011 -0.15841 0.27924 -0.83324 0.10143 0.32426 -0.52766 -0.16298 0.045718 0.064409 -0.14118 0.26473 -0.50733 0.15758 0.13025 -0.21583 -0.60176 -0.25995 -0.056763 0.21963 -0.24029 0.37892 -0.80412 -0.031887 0.3363 -0.36409 -0.72663 0.37048 0.18992 0.37476 -0.017273 0.13377 0.26914 -0.2069 -0.11991 0.80472 -0.082028 0.062981 -0.05145 -0.59693 -0.12293 -0.32556 -0.12484 0.37985 -0.28984 0.38408 0.13669 0.46126 -0.023968 0.023685 0.11764 -0.16207 0.043649 -0.55929 -0.35449 -0.037823 -0.52062 -0.4999 -0.27651 -0.12129 0.69773 0.028656 0.064268 0.10602 0.0093983 -0.15745 -0.098148 0.43703 -0.53353 -0.006792 -0.0972 -0.31602 -0.31536 0.44929 0.13214 0.23567 -0.20314 -0.016571 0.22475 -1.0111 0.70363 -0.26984 0.10645 -0.42729 0.36645 -0.24854 -0.24008 -0.13679 -0.13458 -0.31797 -0.060128 0.036388 -0.23591 0.34503 -0.088931 -0.11095 -0.36175 0.44493 -0.38498 0.08068 0.099413 -0.30008 0.22557 0.30311 0.073611 0.048082 0.096219 0.46393 -0.0041178 -0.18397 -0.045994 0.48764 0.022323 -0.63563 -2.5157 0.30248 0.17745 0.074722 0.20916 -0.068537 0.35426 0.63343 -0.20434 -0.33602 0.21708 0.053945 0.089486 0.52417 -0.33326 -0.10866 0.60171 -0.53587 0.36976 -0.188 0.32272 -0.15897 -0.11836 0.35877 -0.03152 -0.15516 0.047848 -0.021232 -0.082453 -0.23759 0.21055 -0.54799 -0.16226 -0.17877 -0.49411 -0.35021 0.40023 -0.036721 -0.12031 -0.34268 -0.014847 -0.35686 0.36718 0.41271 0.17058 0.065777 -0.048714 0.033059 0.077156 0.2923 -0.14863 -0.71521 0.34416 -0.64433 0.071947 0.038341 0.016789 -0.17775 -0.038905 0.1782 -0.22656 0.052109 0.31352 -0.61062 -0.50983 -0.185 0.19935 -0.12267 0.45 0.3166 -0.46823 -0.23999 0.29016 0.095743 0.33749 0.0028706 -0.1942 -0.13669 -0.13794 0.065901 -0.0078427 -0.24848 -0.35383 0.18623 0.33579 0.0044988 -0.080776 0.040623 -0.25597 0.12947 -0.29732 0.21964 -0.46428 0.11519 -0.21024 0.18829 -0.39595 -0.059216 0.21033 -0.20628 0.41804 0.16644 0.1117 -0.44248 0.05799 -0.33317 0.13825 -0.068785 -0.10325 0.80337 -0.024041 0.00061709 -0.46541 0.19646 -0.28815 -0.099219 -0.05856 0.13213 0.019433 0.26593 -0.37346 -0.072913 0.35269 -0.38029 -0.15621 -0.012042 0.23445 -0.085342 -0.188 0.091966 0.48493 0.26304 0.066403 0.28001 0.098277 -0.19293 0.037794 0.54294 -0.015286 0.49075 -0.24599 -0.49728 0.1051 0.29943 -0.26978 -0.087667 0.13345 0.20625 -0.2051 0.41709 -0.34421 0.40315 0.45997 -0.45138 -0.22535 0.45898 0.057179 -0.33646 0.30296 -0.17124
go 0.13893 -0.019056 -0.33891 0.12151 0.36523 -0.17391 -0.026735 -0.050335 0.24743 2.4531 -0.42113 0.23632 0.20513 -0.010937 -0.1148 -0.037648 -0.1344 0.86124 -0.35803 0.092525 0.28075 0.13649 0.20819 0.060206 -0.18229 0.10172 -0.132 -0.31598 0.22241 -0.19076 -0.010884 0.16988 0.0080345 0.13337 0.17724 -0.19162 0.33681 0.30186 0.061654 0.0076906 -0.54406 0.050142 -0.043115 -0.26241 0.047462 0.3367 -0.28649 -0.27414 0.026776 -0.065939 0.11021 0.28869 0.46712 0.12063 0.33831 -0.00030427 -0.12116 -0.159 -0.10514 -0.03856 -0.062205 0.035631 -0.17852 -0.13308 0.26103 -0.11082 -0.27463 0.18556 0.45257 0.30336 0.061801 0.07731 0.34645 0.0036526 0.46815 0.020228 -0.025509 -0.019465 -0.0053998 0.086497 -0.053099 -0.086426 -0.46913 0.065788 -0.1272 -0.24254 0.24149 -0.37684 0.65707 0.14106 -0.2108 0.11095 0.12741 -0.28938 -0.075295 0.044109 0.05428 -0.29666 0.016423 0.044086 0.072862 -0.30149 0.034613 0.086731 0.31091 -0.37156 0.17382 0.21996 0.060312 0.16767 0.038469 -0.63231 0.32331 0.10421 0.2508 0.26267 0.17882 -0.24515 -0.17214 0.28319 0.065598 -0.044386 0.037064 0.045018 0.39367 -0.1358 -0.046021 0.2326 0.034156 0.084838 0.038056 -0.0034659 -0.068177 0.082606 0.15811 -0.19388 0.061247 -0.34282 -0.23392 0.091131 -2.0934 0.13815 0.17597 -0.38005 0.2469 -0.22482 -0.059415 0.42415 -0.13768 -0.064184 -0.06323 0.10228 0.039662 -0.2891 0.080242 -0.42854 0.10474 -0.1407 -0.05042 -0.13486 -0.13077 -0.1156 -0.37648 0.014467 0.0284 -0.14921 0.29029 -0.099163 0.22967 0.049717 -0.24345 0.027722 0.074055 -0.42579 0.16724 0.065469 0.077571 0.21529 -0.07133 -0.052742 0.1208 -0.056503 -0.35852 -0.085641 0.53364 0.18189 -0.17887 -0.201 0.43655 0.17912 0.022238 -0.048491 -0.088347 -0.17544 -0.17052 0.27578 -0.27629 -0.05603 0.30416 0.45115 0.06844 -0.15926 -0.27197 -0.022628 0.34567 -0.088622 0.19358 -0.041653 0.41661 0.10848 -0.069752 -0.23749 -0.18511 0.0088535 -0.12773 -0.082802 0.045794 0.33554 -0.30644 0.44171 0.15975 -0.012756 -0.26972 -0.078977 -0.048264 -0.065962 -0.30006 0.1044 -0.12715 -0.014488 -0.35107 -0.11407 0.66343 0.16589 0.01504 -0.0083249 0.013835 -0.196 -0.03613 0.20337 0.11822 0.1476 -0.039074 0.24619 -0.09628 -0.22719 -0.22597 0.19236 -0.41362 0.37821 0.28114 -0.078232 -0.24852 0.084978 0.4568 0.47818 -0.072192 -0.22441 -0.25713 0.1182 0.18028 0.51181 0.40904 -0.24304 0.4909 -0.39707 -0.051963 0.017818 0.2516 0.2829 0.22776 -0.25844 0.14281 -0.072607 0.15194 0.25309 0.047232 0.25905 -0.093313 0.11226 -0.17449 -0.34896 -0.20145 0.11628 -0.10769 -0.078528 0.093096 -0.16539 0.043994 0.059698 -0.13047 0.072147 0.0033663 -0.18181 0.031465 -0.035351 -0.0047912 0.092753 0.28618 0.13646
follow 0.27725 0.00060099 -0.68631 0.56401 -0.053123 -0.25732 -0.1155 0.15155 0.38845 2.4654 -0.66098 0.15249 0.030341 0.40423 -0.086022 -0.034182 -0.057661 1.0092 -0.25174 0.23382 0.34693 0.24589 -0.069179 0.044438 0.15988 0.2906 0.038782 -0.44979 0.28452 0.0072525 0.13456 0.4219 -0.11462 0.083381 -0.28071 0.30063 -0.075307 -0.035229 0.14691 -0.1032 -0.68875 -0.27906 0.12985 0.075681 -0.18083 0.16554 -0.31339 0.51387 -0.31919 -0.28712 -0.00062715 -0.077961 -0.065524 -0.038038 -0.34686 0.06766 -0.069909 0.11023 -0.44291 0.093949 -0.27076 0.096325 0.078517 0.033555 0.03123 0.27568 -0.14747 0.18289 0.27161 0.10544 0.14279 -0.27999 0.38628 -0.093375 0.27382 -0.30859 0.10578 -0.38313 0.12736 -0.090991 0.58725 -0.1745 -0.23287 -0.18031 0.49276 -0.23133 -0.12255 -0.45915 0.4153 0.088676 -0.16909 -0.35027 0.15807 0.17479 0.070236 0.202 0.039238 -0.083154 0.047892 -0.24329 0.31012 -0.33282 0.011881 0.059049 -0.0068897 -0.58825 -0.15673 0.00056421 -0.025326 0.34488 -0.21597 -0.25355 0.51311 -0.15689 0.0052784 -0.18735 -0.15539 -0.47447 -0.49977 0.2662 0.045308 -0.49556 0.10823 0.26102 0.22427 0.026401 0.12234 -0.0075782 0.31025 -0.14928 -0.073527 -0.23603 -0.030023 0.079253 -0.14173 -0.37269 0.044053 -0.41007 0.21006 0.33933 -1.0853 -0.0528 -0.55007 -0.58101 0.17941 -0.54351 -0.14718 -0.22096 -0.48477 0.14602 0.091829 0.1092 0.25523 -0.26128 -0.13945 -0.079953 -0.36113 -0.29622 -0.11973 -0.016166 0.12031 0.17819 -0.56913 0.21361 0.2231 -0.2431 -0.1772 -0.047317 -0.0074138 0.068311 0.27347 0.26298 0.15908 -0.55272 0.09689 0.1074 0.12607 0.21148 0.15657 0.22317 0.17733 -0.17125 0.24811 -0.17644 0.3995 0.10235 -0.3542 -0.4106 -0.088622 0.072784 0.18178 -0.41564 0.1628 -0.26478 0.15951 0.26858 -0.11138 0.1081 0.4282 0.47308 -0.68689 0.20694 -0.1248 -0.10431 -0.085302 0.14923 0.13569 0.10203 0.12789 -0.40295 0.064048 -0.11711 -0.063715 -0.010081 -0.35165 0.21777 0.15914 0.27222 -0.10293 0.52231 0.2672 -0.032262 -0.20059 0.42377 0.02657 -0.025934 -0.50696 -0.083795 -0.21021 0.0028672 -0.37752 0.12232 -0.23974 0.42767 -0.15835 -0.28636 -0.23841 -0.1284 -0.13736 0.36216 -0.056386 -0.13275 0.11542 -0.028409 -0.0089031 0.075309 0.081351 0.1624 -0.11598 0.61324 -0.28778 0.12663 -0.14456 -0.053246 0.3389 0.26272 0.37064 -0.27313 -0.15476 -0.19779 0.23704 0.32237 0.35791 -0.71707 0.19088 -0.13093 0.25717 0.37141 0.56384 0.064526 0.10619 -0.020183 -0.096305 -0.23352 -0.13436 0.10016 -0.10944 0.24428 0.13304 0.31312 -0.16733 0.0027037 0.15629 -0.18424 0.14902 -0.14468 -0.020866 0.10339 0.35558 -0.1021 -0.31016 0.39264 -0.11371 0.15088 0.29691 -0.43001 0.12799 -0.12498 0.39017 -0.0053984
fear -0.46954 0.029578 0.093616 0.045205 -0.097207 0.090735 -0.1003 0.42667 -0.24111 2.9531 -0.21009 -0.071307 -0.0098671 -0.15659 -0.30373 -0.0014373 -0.27129 0.42019 -0.61786 0.63988 0.12096 -0.21204 0.069252 -0.079448 -0.37351 -0.11171 -0.082073 0.25713 -0.21016 -0.17825 -0.26067 0.094081 -0.69152 -0.25486 0.65144 0.44531 0.60819 0.52617 0.11767 0.0047999 0.3624 -0.29613 -0.24884 0.08205 0.27123 -0.17411 -0.18563 0.39593 -0.00042358 -0.068387 -0.26972 0.062719 -0.39273 0.19979 0.01958 0.28939 -0.41556 -0.013095 0.011407 -0.087835 -0.14688 0.31762 -0.040335 -0.36373 -0.14824 0.21183 0.16938 -0.64128 -0.13687 0.14839 0.053101 -0.21901 0.077344 0.24173 0.13519 -0.31846 0.19646 -0.02371 -0.083864 0.080344 -0.53505 -0.17821 -0.10346 -0.61523 0.49359 -0.26815 -0.020801 -0.71828 0.010732 -0.092066 -0.053182 -0.185 -0.17625 -0.1722 -0.41387 0.067907 -0.14198 0.26175 -0.062551 -0.48918 0.2218 0.19139 -0.23368 -0.099457 0.47939 -1.6021 -0.48938 0.3395 -0.5524 0.51832 -0.15357 0.30822 -0.032453 -0.21511 -0.49245 0.091205 -0.055325 -0.25424 0.29655 -0.15018 -0.14212 -0.10392 0.21376 -0.19921 -0.10158 -0.2929 0.26974 -0.16349 -0.63405 -0.30639 -0.25856 -0.19239 -0.082413 -0.09611 0.29991 -0.16747 0.017323 -0.011814 -0.11029 -0.19386 -1.8132 0.062492 0.39557 -0.15195 -0.048269 0.16741 0.3182 0.42887 -0.49729 -0.59274 0.044544 -0.16906 0.6495 0.13633 0.16245 -0.26125 -0.20866 -0.098125 -0.41697 -0.07623 -0.02264 0.011497 -0.36031 0.39703 0.021078 -0.00020095 0.46124 -0.2803 -0.36871 -0.62234 -0.12997 -0.43422 0.24233 0.15477 0.43657 0.3438 0.22469 -0.34974 0.29457 -0.11305 0.10579 -0.18949 0.15902 0.14292 0.23884 -0.21997 0.0044545 -0.1158 0.016751 -0.041766 -0.10286 -0.47808 0.069495 -0.086262 0.18169 0.054775 0.20098 -0.37428 0.24941 0.71444 0.12312 0.16276 -0.13681 -0.041763 0.20325 0.025121 0.17533 -0.070591 0.14764 0.2126 -0.023697 -0.22272 0.073208 0.41318 0.038565 -0.21041 -0.18903 0.0043589 -0.32529 -0.090875 0.173 -0.10046 -0.12122 -0.40102 -0.61354 -0.10458 -0.11654 -0.16493 -0.53482 -0.5998 -0.030214 0.36611 0.029326 -0.14825 -0.020762 0.09372 0.10046 -0.043809 -0.41884 -0.32531 0.085064 0.23687 -0.060082 -0.37479 0.065456 -0.19351 -0.1069 0.14453 -0.13275 0.17285 0.11583 0.019178 0.069509 0.13568 -0.35279 0.13439 0.0020354 -0.36144 0.037242 0.25916 -0.26794 0.04118 0.060669 0.22209 0.1009 0.24667 0.21098 0.20424 0.22486 0.10113 0.31063 0.13697 -0.24266 -0.31096 0.078955 -0.36024 -0.13177 -0.031038 -0.081005 0.20051 0.26539 -0.51567 -0.17013 -0.19803 0.35544 -0.056439 0.73438 -0.10234 -0.057389 -0.36106 -0.29878 -0.016108 -0.075059 0.014706 -0.016833 0.79713 0.26664 0.32351 -0.094438 0.026116
suffer -0.4483 0.27613 -0.12175 0.034157 -0.20203 -0.62764 0.25437 0.08469 -0.12702 2.4975 -0.34693 -0.26237 -0.25621 0.1685 -0.15826 0.25776 0.035311 0.55788 -0.35103 0.64857 -0.34258 -0.032564 -0.23405 -0.1331 -0.19706 0.12507 0.24972 -0.27679 0.27799 0.23488 -0.29795 -0.073442 -0.96935 -0.015427 -0.022032 0.39865 0.39804 -0.033246 0.3449 0.28057 0.414 -0.20633 -0.047724 0.11143 -0.26116 -0.1878 -0.50395 0.2821 -0.1761 0.49233 -0.47094 0.12671 0.2764 -0.31019 0.20999 0.24156 -0.43146 0.019798 -0.16387 -0.3435 -0.18235 -0.13101 -0.031355 -0.17361 0.11963 0.085284 0.19003 -0.35196 0.41971 0.33554 0.087511 0.21176 0.29805 -0.063763 0.22292 -0.087881 0.27002 -0.028813 -0.10071 -0.2602 -0.1918 0.17138 0.05297 -0.60155 -0.014389 -0.6446 0.20682 -0.59558 0.018548 -0.26778 -0.45325 -0.18649 -0.014831 0.014484 -0.008619 0.15266 -0.039113 -0.081757 0.030041 0.20553 -0.21658 0.42896 0.13672 -0.16848 0.34609 -1.8033 -0.29036 -0.015328 -0.064044 0.19693 -0.15178 0.19999 -0.057186 -0.16119 -0.49357 -0.12204 -0.33814 -0.046102 -0.14554 -0.064113 -0.22977 0.010357 0.12893 -0.3891 0.13226 -0.60667 0.1004 0.17547 0.06639 0.22465 0.47019 -0.24668 -0.11991 0.35963 0.13963 -0.2481 -0.3626 -0.33564 -0.21699 0.35775 -0.97093 0.32963 0.14448 -0.019556 0.28412 0.062759 -0.074931 0.27183 -0.019049 -0.53312 -0.057769 -0.069416 0.2577 0.22853 -0.14974 -0.24236 -0.046779 0.40983 0.088987 -0.59247 -0.039854 -0.19278 0.044868 0.22324 0.027935 0.16669 0.38504 -0.31496 -0.35554 -0.28704 -0.47155 -0.33923 0.52877 0.14249 0.25454 0.1418 0.058679 0.021543 0.23046 0.23203 -0.37844 0.038545 0.049111 0.60331 0.36794 -0.2001 0.049633 0.28588 0.36821 0.17126 0.40011 -0.34981 -0.11461 -0.036191 -0.15838 -0.35426 -0.1805 -0.3759 -0.03975 0.39182 -0.090789 0.080782 -0.25273 0.029142 -0.2996 -0.17337 -0.48195 -0.36532 -0.020377 0.44756 0.11093 -0.32466 -0.17875 -0.12476 -0.31616 -0.4663 0.13423 0.28428 -0.1585 -0.13859 -0.0090861 0.16836 -0.19841 -0.64194 -0.0058956 -0.24069 -0.087303 -0.40232 -0.52034 -0.14811 -0.13015 -0.33704 0.21448 -0.1352 0.31278 -0.095945 0.34665 -0.4287 -0.45035 -0.53781 0.23039 0.20891 -0.0065396 0.21745 -0.064898 0.16383 0.24172 0.34833 -0.54117 0.57668 0.45264 0.17959 0.63121 0.43007 -0.19407 0.16028 -0.17431 0.10467 0.45136 0.25196 -0.30525 -0.14476 -0.23679 0.31841 0.079626 0.22758 -0.098301 -0.011066 0.20105 0.34253 0.7993 -0.87389 -0.14378 0.28427 -0.59554 -0.20846 -0.27999 0.35843 -0.038818 0.6057 -0.0079202 0.11957 0.16174 0.1152 0.075099 0.21335 0.19033 -0.33051 0.20982 0.14613 -0.55966 0.12314 -0.52199 -0.32934 -0.20074 0.36749 0.078247 -0.4707 0.1936 -0.50287
progress -0.11634 0.1007 -0.40652 0.05675 -0.45643 -0.22673 -0.069244 0.30269 0.1839 2.6191 -0.31326 -0.14389 -0.068679 0.42676 0.21232 0.41572 0.18636 1.2254 -0.35717 0.19633 0.052882 0.23256 0.13397 -0.13577 0.16223 0.51249 0.52958 -0.069033 0.10186 -0.14132 0.12921 -0.038554 0.023943 -0.062576 -0.29661 -0.0086214 0.071675 0.35942 0.22197 0.15277 0.01279 -0.029671 -0.00086849 0.33144 -0.20272 -0.014668 -0.001581 0.54224 -0.33768 -0.24937 0.37751 -0.0058346 -0.091537 -0.24309 -0.050946 0.41493 0.14054 0.048369 0.32655 -0.47731 -0.50114 0.15307 0.047749 -0.21275 0.26589 -0.068575 -0.096668 -0.085473 0.24419 0.24202 0.084162 -0.023547 -0.061111 -0.25666 0.62256 0.075135 -0.36147 -0.098875 -0.13523 0.058521 0.081117 0.083079 0.14726 0.40931 -0.27798 -0.042028 -0.35911 -0.22369 0.058221 0.80738 0.080731 0.12735 -0.3235 0.29078 -0.45494 0.039526 0.27551 0.040211 0.09737 0.28789 -0.034833 -0.57295 0.35861 -0.41972 0.12966 -1.2838 -0.012459 0.10754 -0.04877 0.38281 -0.31456 0.022695 0.069194 -0.66137 0.30836 -0.1233 -0.15621 -0.20052 0.14203 -0.2921 0.1905 -0.31096 0.34633 0.6528 0.30204 0.092526 -0.23816 0.25421 0.1894 0.046638 0.26447 -0.18851 -0.17538 0.14516 0.052717 0.32148 0.29809 0.19947 0.25019 0.11067 -0.40688 -0.15381 0.07834 -0.2955 -0.059265 -0.28135 -0.14716 0.53594 -0.35858 0.58392 -0.095591 -0.11854 0.064541 0.38073 -0.14265 -0.065744 -0.041435 0.18276 0.10354 -0.54459 0.024089 0.11102 -0.62842 -0.10507 -0.11974 -0.038226 0.12461 -0.45391 0.17671 -0.13785 -0.09382 0.27373 -0.0057992 -0.23278 -0.085921 -0.17102 0.09701 0.22526 -0.1955 0.12151 -0.088145 0.1227 -0.026153 0.38289 -0.35787 -0.11354 0.11262 -0.16071 -0.41106 -0.03256 0.43594 -0.21662 -0.13457 -0.054709 -0.025616 0.36473 0.03314 -0.020427 0.30839 0.36688 0.17759 0.31231 0.12929 0.45923 0.060264 -0.080417 -0.29622 0.23252 -0.035746 -0.024571 0.44978 -0.60718 0.25 -0.10236 -0.25941 -0.033758 0.13336 -0.032371 0.014709 -0.014271 -0.20696 -0.35858 -0.0583 0.24355 -0.13864 0.30477 0.18893 0.073431 0.2343 0.06768 -0.1693 0.30323 -0.089954 0.36998 0.12972 0.21507 -0.38127 -0.005646 0.02369 0.31687 -0.12636 -0.27535 -0.14848 0.20414 -0.19586 -0.040463 0.40274 0.16162 0.068939 0.071632 -0.11938 -0.25525 -0.0052124 0.15264 0.0088225 0.053027 0.2312 -0.28262 -0.16547 -0.20103 0.094106 0.31603 -0.11978 0.33933 0.085969 -0.5848 0.18993 -0.034137 0.67671 0.072988 0.34064 -0.25591 -0.28447 -0.57416 -0.15717 0.038061 0.50428 0.12454 -0.046327 0.2806 0.15899 -0.1563 -0.32085 0.27867 0.13995 -0.41369 -0.098336 0.17002 0.079094 -0.50774 -0.17697 0.48584 0.34719 0.13832 0.47836 0.055186 -0.15813 0.036993 -0.33529 0.28248
find 0.085 0.32213 -0.56233 0.22949 0.52346 0.14447 -0.23583 0.21421 0.13001 2.4972 -0.64963 -0.048515 0.04583 -0.22238 -0.18051 -0.48273 -0.17887 1.082 -0.27952 0.0079272 0.26698 -0.022806 0.072569 -0.22014 -0.20577 0.2264 0.0073316 -0.24887 0.5549 -0.13779 0.14512 -0.11439 -0.051703 0.31745 0.32201 -0.20811 0.11193 0.13575 -0.43036 -0.29736 -0.39326 -0.018894 0.20357 -0.35231 0.15671 0.08909 0.24876 -0.082225 0.10834 -0.28267 -0.42532 0.0061455 0.26046 0.18647 0.38109 -0.28907 -0.047404 -0.43899 0.02629 0.12063 0.068961 -0.45495 -0.36089 0.40885 0.22289 0.095839 -0.075216 0.12365 0.27828 0.28902 0.25929 0.13922 0.54117 -0.34456 0.37585 0.44643 -0.013632 -0.2648 0.090079 0.049975 0.082954 0.11672 -0.070383 -0.066076 0.22184 -0.34387 -0.29557 0.17729 0.47305 0.072525 -0.23374 0.22451 -0.037166 -0.016049 0.23175 0.19073 -0.132 -0.20731 0.035287 -0.19865 -0.34231 -0.19604 0.3121 -0.017675 0.22864 -0.56209 0.020847 0.033744 -0.077577 0.34907 0.44967 -0.25112 0.43544 0.0069616 0.17479 0.23488 -0.0086412 0.10313 -0.1595 -0.39102 0.089589 -0.21164 0.13021 -0.21386 0.35051 -0.018441 -0.019851 0.010715 0.22046 -0.023222 0.0384 -0.11081 -0.2442 -0.14524 0.18755 0.040238 -0.32708 -0.18726 -0.15265 -0.33795 -1.462 0.19881 -0.1023 -0.32821 0.161 -0.32381 -0.020597 0.021221 0.36954 0.063279 0.049476 -0.092739 -0.10519 -0.27689 -0.12472 0.29008 0.20677 -0.12924 -0.19383 -0.3228 -0.28041 0.087928 -0.040599 0.075057 0.57124 -0.20282 0.23582 -0.16433 0.17654 -0.017024 -0.51187 0.040629 0.14418 0.11091 -0.39606 0.098308 -0.087301 -0.064865 0.088017 0.24059 0.59536 0.04972 -0.092684 0.27272 0.15576 -0.052422 -0.052578 -0.49308 -0.24332 0.15795 -0.49064 0.082898 0.068976 0.21467 0.09202 0.023876 -0.092286 -0.022832 0.30796 0.21179 -0.048741 -0.57514 -0.26375 -0.089836 -0.20303 0.10769 0.28453 0.077151 0.26571 0.084931 0.02914 -0.49316 -0.46487 -0.39692 0.1379 -0.33849 -0.023794 0.35951 -0.47448 -0.099848 0.384 -0.2182 0.094615 0.048564 0.16938 -0.058976 -0.29757 0.0649 0.01013 -0.48898 -0.12871 0.10077 0.40043 0.27626 0.16588 -0.048701 0.022371 0.089053 -0.22542 0.34705 0.31095 0.035829 -0.18612 -0.085772 0.11292 -0.22839 -0.11672 -0.14033 -0.13189 0.29435 0.24693 -0.18435 -0.20318 -0.14481 0.13472 0.27639 0.1244 0.19284 0.16389 0.068841 -0.045243 0.24744 0.35782 -0.0057826 0.22265 -0.23438 -0.11271 0.35155 0.35093 0.41991 -0.44029 0.34972 0.24775 -0.28546 0.091789 -0.15985 -0.11298 0.28307 0.00074296 0.1287 0.10788 0.11797 0.22835 -0.29286 0.22903 -0.12959 0.16221 -0.17615 0.26743 -0.34165 -0.2823 -0.00090938 -0.09705 -0.13654 0.23613 -0.38835 -0.084917 -0.40471 0.39549 0.22524
consider 0.049006 0.038069 -0.3744 -0.00010381 0.11605 -0.021332 0.070413 -0.28241 -0.104 2.7924 -0.37609 0.081969 0.22754 0.15045 -0.10357 -0.29625 -0.4118 0.93499 -0.18056 0.20141 -0.061213 -0.034048 0.054266 -0.11334 -0.27346 0.21271 -0.082915 -0.36639 0.37105 -0.13245 0.022775 0.11091 0.19786 0.15312 0.17848 -0.17455 0.25548 -0.015795 -0.17887 -0.27626 -0.31728 0.091576 0.029421 0.22139 -0.1712 0.0021668 -0.21457 -0.065294 -0.12706 -0.18216 -0.26878 0.20149 0.11153 -0.09676 0.22234 -0.17205 -0.3532 -0.45192 -0.14073 0.2958 0.19818 -0.73646 -0.07591 0.1216 0.11412 -0.3606 0.073027 -0.082017 0.15732 -0.092346 0.29913 -0.00038314 0.058843 -0.31889 0.3379 0.014928 0.21852 -0.27559 -0.14534 0.23079 -0.19392 -0.166 -0.075713 -0.043569 0.12264 -0.11152 -0.50636 0.068095 0.49402 -0.10471 -0.052768 -0.019815 -0.061694 0.057934 -0.19782 0.28889 0.15474 -0.18844 0.10124 0.17479 0.064748 0.045932 0.021439 0.12391 0.51119 -1.4096 0.044274 -0.070598 -0.14104 0.20546 0.15543 -0.10365 0.16807 0.003175 -0.08259 0.11008 -0.12826 -0.30206 0.20186 0.083878 0.44967 -0.13615 -0.051623 0.11297 0.36447 0.057697 -0.13969 -0.059025 0.056584 -0.023269 -0.04584 -0.04129 -0.24292 -0.20276 -0.1387 0.30246 0.11677 -0.33385 0.5469 0.12926 -0.55985 0.25807 -0.15623 0.11237 -0.228 -0.34994 0.068655 0.017496 -0.043837 -0.02036 0.090321 0.21295 -0.12222 -0.15098 -0.12974 0.028223 0.24344 -0.24944 -0.28724 0.10844 -0.37104 0.16593 -0.63379 -0.33247 -0.14337 -0.10315 -0.027183 -0.21707 0.047829 0.097716 -0.18162 -0.10183 0.33761 -0.39333 0.12229 -0.13498 0.18759 0.18543 0.2254 0.10972 -0.074333 -0.02492 0.042222 -0.2346 -0.051964 -0.034172 -0.035061 -0.23762 -0.10532 0.10623 -0.064578 0.1497 -0.20757 -0.49715 0.14571 -0.10469 -0.34354 0.2341 0.00065809 0.55112 0.33648 -0.25486 -0.16415 -0.24614 0.12404 -0.13046 -0.21459 -0.19363 0.13971 0.46968 0.11004 0.21749 0.05208 -0.14126 0.03412 0.22325 -0.1169 0.42638 -0.42313 -0.15624 0.16911 -0.13479 -0.14611 0.024789 0.23451 -0.26448 -0.1534 -0.10406 -0.22637 -0.42569 -0.1918 0.11077 -0.18217 0.15371 0.083481 -0.034417 -0.02912 -0.10148 -0.11994 0.32618 0.17195 -0.12607 0.17071 0.17555 -0.046648 0.26401 0.37283 -0.052566 -0.013138 0.11746 0.11204 -0.20195 0.0046723 -0.024927 -0.33136 0.33587 -0.11201 -0.22673 0.3855 0.24333 0.30907 0.32275 0.28655 0.11708 0.068888 -0.033661 0.12236 0.11212 0.45164 0.45738 0.069001 0.13594 -0.12799 -0.32109 0.00017244 0.12492 0.007163 0.4404 -0.23285 -0.083951 0.12926 0.0022167 0.50106 -0.041548 0.16353 -0.2947 0.12554 -0.1621 0.070212 0.30524 -0.21346 0.0078139 -0.45784 -0.34997 -0.091354 0.031636 -0.40084 -0.20437 0.30026 -0.090588
move 0.21622 -0.060501 -0.21388 0.17999 0.31751 -0.090125 -0.63856 -0.072078 -0.028362 2.7827 -0.35842 0.21641 0.31331 0.19313 -0.33787 0.16183 -0.27794 1.0855 -0.31497 -0.23387 0.1608 0.35384 0.22741 -0.3189 -0.095882 0.19932 -0.20232 -0.32916 -0.17043 -0.21287 -0.49855 0.05289 -0.1395 -0.054609 0.47443 0.17826 0.43721 0.21701 0.088341 -0.72042 -0.36936 0.19028 -0.16871 -0.050214 0.13022 0.083131 -0.073809 -0.17614 -0.47957 0.22468 0.155 0.02973 -0.2877 0.1523 0.11275 0.18517 -0.33071 0.13274 0.13475 -0.32012 0.032409 0.22914 -0.18188 -0.15165 0.38296 0.093781 -0.026192 -0.016128 0.37384 0.20027 0.18481 0.063866 -0.12252 -0.1547 -0.15281 -0.37426 -0.11494 -0.61168 0.47242 -0.30813 -0.10404 -0.017971 -0.42417 0.32921 -0.0958 0.23888 -0.0077329 -0.17052 0.49318 -0.067833 0.031798 -0.23322 -0.02449 0.049107 -0.16745 0.13829 0.071187 -0.28922 -0.21338 0.18173 0.0088693 -0.18321 -0.20818 0.083678 0.26676 -1.0543 0.36934 0.18886 -0.19441 0.19779 0.17676 -0.3139 -0.10337 -0.28829 0.10025 0.25286 0.15328 -0.068426 -0.22126 -0.0050013 -0.30582 -0.24731 0.064579 -0.029569 0.10962 -0.1047 -0.018732 0.11467 -0.11105 0.29504 -0.16588 0.037691 -0.043193 -0.030527 0.2888 0.11756 -0.062636 0.06664 -0.1162 -0.0014426 -1.4016 -0.035688 -0.44973 -0.16481 0.16455 0.03896 0.14756 -0.057375 0.080901 0.15064 0.085132 0.14709 0.22036 0.17871 -0.043748 -0.47704 -0.024095 0.13668 -0.063531 -0.19695 -0.062927 0.019225 -0.38364 0.018802 -0.074745 0.072642 0.083141 0.16193 0.22566 -0.11936 -0.02516 0.11067 -0.6879 -0.27091 0.50782 -0.16453 0.019162 0.16665 -0.22395 0.15611 0.25885 -0.15856 0.028016 0.093927 -0.1055 -0.16134 -0.27575 -0.37043 -0.036094 -0.0082681 -0.094309 -0.10822 0.26028 -0.45166 0.27846 -0.12175 -0.083977 0.060721 -0.29192 0.33131 0.22006 -0.20349 0.14211 -0.48561 0.26615 0.060918 -0.13895 -0.23903 0.10913 -0.20398 -0.13951 -0.60293 0.31031 -0.00021371 0.1353 0.13258 -0.070431 0.14303 -0.15581 0.11056 0.25829 -0.42104 -0.090649 -0.12476 0.32835 0.0557 0.11439 0.46161 0.0034481 0.065277 -0.030301 0.14988 0.35531 0.57655 0.24415 -0.16469 -0.1733 0.14755 0.31471 0.073569 0.47077 -0.073172 0.36821 0.38946 0.013476 -0.50353 -0.12616 -0.21967 -0.32503 0.39113 -0.23564 -0.11994 -0.20286 -0.1632 0.053359 -0.04039 -0.031738 0.024756 0.089358 -0.14603 0.0181 0.21381 0.36443 -0.28369 0.20881 -0.29709 -0.17803 -0.13638 0.19249 0.24416 0.49981 -0.28 -0.14717 -0.17316 -0.26345 -0.063387 0.20326 0.47541 0.22199 0.19848 -0.036367 -0.089479 -0.38496 0.41922 0.0040202 -0.51071 -0.042561 -0.063129 0.11328 -0.058289 0.11901 0.11925 0.27022 -0.22151 -0.21778 0.18602 -0.44099 0.028362 -0.15843 0.12485
delay -0.056659 0.59466 -0.10755 -0.16167 -0.61532 -0.3712 0.050214 -0.3539 -0.24813 1.8499 -0.042043 -0.15086 0.46436 0.22428 -0.5339 -0.090789 0.13194 1.5121 0.10546 0.32721 -0.29022 0.021104 -0.44498 -0.51274 0.079581 -0.15241 -0.22964 0.038683 0.45409 -0.32527 -0.38488 -0.12752 0.09115 0.25115 -0.12693 0.32959 0.28994 0.038895 0.29546 -0.11652 0.45322 -0.35671 -0.04372 0.086082 -0.36794 -0.28245 -0.14037 0.47864 -0.3145 -0.1341 0.27523 -0.41681 -0.0053996 0.25245 -0.3285 0.59253 -0.089149 0.31763 -0.048881 -0.48308 -0.16608 0.5861 -0.060262 -0.33435 0.044987 -0.16555 0.11146 0.028497 0.21483 -0.079557 0.65811 0.62443 -0.13483 -0.30762 0.61219 -0.37812 0.12823 0.11541 -0.14716 -0.0012147 0.14546 0.036667 -0.47466 0.47331 0.33733 -0.00070226 0.60869 -0.18269 0.47929 0.29354 -0.41804 0.14043 -0.42516 -0.086632 -0.63726 0.017329 0.049715 -0.014067 0.077623 0.59785 0.26263 0.13034 0.43115 0.47458 0.32394 -1.5289 -0.016057 0.49942 0.067476 0.25051 -0.38588 0.0055722 -0.56164 0.84878 0.29489 -0.54372 -0.23136 -0.069674 0.021885 0.24748 -0.093686 -0.45964 -0.28462 0.24093 0.04997 -0.14549 -0.063125 -0.060046 -0.034156 0.42588 0.33365 0.16061 0.088753 -0.11378 0.27557 -0.34038 0.066895 0.46835 -0.029614 -0.10019 -0.27642 0.071676 -0.17891 -0.52657 0.22019 0.30039 -0.19878 -0.066261 -0.29698 0.37074 0.073256 -0.33326 0.022702 0.059305 -0.14526 -0.73534 -0.087618 -0.033889 0.30114 -0.039832 -0.69489 -0.014396 -0.093096 -0.19723 -0.40494 0.14623 0.48578 0.16614 0.21416 -0.26114 -0.19726 -0.29598 0.20073 -0.17319 0.073143 -0.095143 0.37718 0.035416 0.36895 -0.28166 -0.42152 -0.12974 -0.38202 0.21393 -0.00090815 -0.13324 0.12065 -0.13954 -0.25239 0.30734 0.077835 0.12204 -0.071784 -0.27606 -0.22652 -0.031168 -0.0081752 -0.37299 -0.43224 0.54053 0.044394 -0.0063939 0.040455 -0.30176 0.29212 -0.67521 -0.18973 -0.12349 0.32744 0.71244 0.4107 -0.23131 0.39988 0.19727 -0.1737 0.19107 0.02762 0.002948 0.15842 0.10701 -0.079282 -0.37672 -0.15751 -0.59476 -0.20164 -0.12335 0.42212 -0.16459 0.14432 -0.20578 1.0003 -0.0049084 0.26878 -0.12932 -0.31659 0.068845 0.037088 -0.15015 -0.22129 -0.056304 1.1611 0.0023745 0.16106 0.17432 -0.40104 0.16107 0.15434 0.51201 0.23643 -0.013072 -0.64049 0.049461 0.24799 -0.099945 -0.055043 0.51505 -0.040158 -0.439 0.20479 -0.015542 0.098027 -0.28411 0.049339 0.18829 -0.21405 -0.27855 0.71001 0.16448 1.2505 -0.26213 0.62749 0.16145 0.04817 -0.23326 0.2911 0.2156 -0.20922 0.26736 0.55595 0.0039665 0.58414 0.19874 0.51216 0.75844 0.39069 -0.081017 -0.29856 -0.16457 0.13881 0.037192 -0.1297 0.28427 -0.18921 -0.039947 0.088948 -0.27818 0.0072618 0.33527 -0.38551 0.39764
cut -0.3941 0.45906 0.01294 0.02054 0.071956 -0.26712 -0.17252 0.24737 -0.63736 1.9338 -0.036662 0.43941 -0.026852 0.22514 -0.029613 -0.11701 0.013886 1.2595 0.063162 0.088067 0.2248 0.1689 -0.42221 0.073769 -0.31874 -0.068643 -0.19913 0.31263 -0.26272 -0.44483 -0.89626 0.43165 -0.33679 -0.24559 0.27279 -0.26138 -0.12215 0.33353 0.033058 0.29084 0.28865 0.56676 -0.024667 -0.43074 0.28835 -0.54766 -0.1008 -0.35069 -0.14274 0.49823 0.098226 -0.065456 0.41255 -0.24742 0.068631 -0.12282 -0.18086 0.090243 0.12691 -0.10392 -0.33257 -0.31539 0.26533 0.54241 0.40123 -0.13418 0.29966 0.39438 0.29776 0.11728 0.42423 0.5531 -0.14553 0.12527 -0.34115 -0.30331 0.35249 -0.071783 0.0068965 -0.23594 0.34925 -0.015773 -0.26819 0.26952 -0.4935 0.29448 0.59797 0.15456 0.53848 -0.38682 0.16775 -0.28737 0.34847 -0.10958 -0.035392 0.23098 0.26727 0.41195 -0.021596 -0.64815 0.21846 0.48915 -0.4168 -0.30952 -0.45978 -0.99095 0.22659 0.021744 0.15391 0.53359 -0.43621 -0.55833 0.10112 0.28248 0.043881 0.24328 0.0051623 -0.029093 -0.076871 0.10346 0.19999 -0.061133 0.25172 0.012754 -0.26842 0.33948 -0.072398 0.056961 -0.014355 -0.057112 -0.228 0.033467 0.098354 0.42338 0.24235 0.14214 0.35995 -0.22349 -0.38298 0.061777 -2.0392 0.32497 -0.68071 -0.053914 -0.13053 -0.46373 -0.59384 0.3833 0.076429 0.13891 -0.40671 -0.1192 0.18866 0.14265 -0.084435 -0.15753 -0.1246 0.17478 -0.20715 0.62297 -0.03299 0.20169 -0.60473 0.18629 -0.41545 0.047206 -0.061653 -0.22562 -0.1624 -0.04882 -0.15794 -0.41687 -0.19216 -0.14356 -0.42321 -0.12651 -0.073447 -0.019093 0.83857 0.058382 -0.52086 -0.15281 -0.44545 0.18852 -0.20444 0.039292 -0.2566 0.055752 -0.37426 0.21319 0.21959 0.5518 -0.053527 -0.052096 -0.32333 -0.0059083 0.35421 -0.18607 -0.48882 0.31158 0.084434 -0.45195 -0.11372 -0.15632 0.44127 0.32671 0.0054651 0.0031217 -0.2187 0.54615 0.12217 0.1204 -0.24118 -0.40547 0.10878 0.35108 -0.078345 0.14731 -0.27583 -0.03753 -0.74141 0.16766 -0.32043 0.16288 0.22189 0.16683 -0.32426 -0.10756 -0.090989 0.17908 0.25631 -0.0084907 0.20404 0.46174 0.1396 -0.20494 0.42926 -0.18134 -0.0073882 -0.099672 0.26902 -0.39745 -0.018909 0.052257 0.31918 -0.15314 -0.11892 -0.34 0.11409 0.27643 -0.12239 0.38055 -0.22083 -0.12986 0.1089 0.40704 -0.032742 0.41145 -0.1129 -0.2462 -0.085319 0.23921 -0.19487 -0.042539 0.11467 -0.19228 -0.1499 -0.31464 -0.06963 0.015258 0.5417 -0.29178 0.5854 -0.19156 -0.38792 0.31297 -0.2699 0.44341 0.02584 -0.25996 0.19855 0.083508 -0.11061 0.4871 0.068597 0.10082 -0.079965 0.064883 -0.34642 -0.40805 -0.060801 0.016141 0.26311 0.12873 -0.40477 -0.13908 -0.55169 -0.13596 0.31229 0.18667
monitor -0.17553 0.059979 -0.2608 0.60192 -0.19791 -0.15055 -0.41824 -0.66383 0.10838 0.99453 -0.046176 0.043107 0.068572 -0.10446 -0.41947 -0.064077 -0.12384 2.4197 -0.60756 -0.54094 0.28814 -0.28748 -0.12457 -0.281 -0.031619 0.0047771 -0.35106 -0.10956 0.060805 0.13951 -0.20367 -0.0040215 0.11432 0.14954 -0.47908 -0.34229 -0.34106 0.3308 -0.29815 -0.37612 -0.11859 -0.48336 -0.14441 0.013555 0.073181 -0.37702 -0.74062 0.61996 -0.56135 -0.51575 0.14017 -0.094585 -0.026586 -0.13923 0.007907 -0.14379 0.056461 -0.17526 0.41829 0.022422 0.17081 0.42646 -0.18566 0.27864 0.22006 -0.35172 -0.23801 -0.1221 -0.4445 -0.20235 0.61873 -0.040204 0.27229 0.19797 0.38051 -0.43896 0.3918 -0.018356 -0.086161 0.5244 0.56155 0.12737 0.14511 0.14429 -0.173 0.50966 0.22863 0.70151 0.75743 0.2098 0.045174 -0.24645 0.12245 -0.14058 -0.083733 -1.0764 -0.12837 0.18941 0.31182 0.44947 0.17778 0.21792 0.59924 -0.11085 -0.021267 -1.8751 0.26064 0.01766 0.41845 0.14092 0.034079 0.3971 0.059625 0.32782 0.63816 -0.61935 -0.098439 -0.45132 0.34102 0.53603 -0.33638 -0.37672 0.56953 -0.37001 -0.081102 -0.56537 0.14928 0.37022 0.19212 0.19129 0.01877 0.82651 -0.17218 0.20842 0.41215 -0.035501 0.17736 0.21488 0.58979 -0.20573 -0.40026 0.14824 0.20056 0.045036 -0.15508 0.16923 -0.021491 0.15177 -0.29847 -0.20084 -0.13375 0.0047011 0.12206 0.2518 0.014672 0.033804 -0.1994 0.39564 -0.052412 -0.37835 -0.067162 0.50117 -0.09007 -0.12001 -0.055294 0.41948 0.44184 -0.15279 0.17563 0.073413 -0.7683 0.090299 -0.056092 -0.152 0.17117 0.69201 -0.16219 0.16773 -0.43968 0.29861 -0.2252 -0.47466 -0.13381 0.072351 0.22139 0.15003 -0.19901 0.3272 -0.024554 -0.40893 -0.27459 -0.54888 -0.27376 -0.078246 -0.31597 -0.10078 -0.10002 -0.26603 0.032145 0.059316 0.02142 0.71611 0.52321 -0.19574 -0.15801 -0.080043 0.14051 0.23854 0.23894 -0.31869 0.28581 -0.74806 -0.69067 -0.21826 -0.64867 -0.21173 -0.086175 -0.073665 -0.47013 -0.65692 0.024955 -0.08434 -0.7197 -0.048145 -0.19407 0.37134 0.72606 0.1063 0.1385 -0.2282 0.05535 -0.15663 0.19908 0.38867 0.37569 -0.0023624 -0.11039 -1.1052 0.29402 0.29087 -0.10833 -0.18501 0.94974 -0.20943 0.11295 -0.039978 0.28094 0.089854 -0.22284 0.043481 -0.27685 -0.056424 -0.19469 0.30838 -0.15054 -0.42703 -0.2468 0.55293 -0.65584 0.096671 0.46801 0.11008 0.16389 -0.58282 -0.193 -0.71927 -0.18341 0.12684 0.79648 0.09932 0.3422 0.021795 0.26091 0.35392 0.49886 0.13701 0.31608 0.48006 -0.44562 -0.096255 0.13361 0.0099458 0.26057 0.22843 -0.37514 -0.043877 0.20691 0.11431 0.15411 -0.068028 -0.73321 -0.028638 0.15967 0.048036 0.10477 -0.2802 0.15097 -0.14099 0.24957 -0.14978
title -0.27409 -0.10899 -0.44377 0.055029 0.073908 -0.085274 -0.023821 -0.22339 0.015482 1.8443 -0.50172 0.73327 0.39423 -0.0080002 0.4899 0.13731 0.86044 0.54383 0.3618 -0.13255 -0.31003 -0.1694 0.576 -0.21519 -0.020777 0.45715 0.19577 -0.30796 0.027145 0.3346 -0.15108 -0.13252 0.15023 0.43497 -0.37727 -0.30116 -0.055824 -0.21436 -0.15635 0.18757 0.17995 0.11149 0.5965 -0.4197 0.19509 -0.4496 -0.04078 0.57386 -0.15958 -0.023845 -0.2726 0.45388 0.14053 -0.12576 -0.46797 0.21373 0.46424 -0.2253 0.074821 -0.4059 0.072153 -0.21921 0.32058 0.54763 0.11891 0.32064 0.18676 -0.43277 0.11908 0.31752 0.11414 -0.01404 -0.56966 0.41143 -0.26228 0.37589 -0.051109 -0.26042 0.38441 0.068188 -0.25595 0.31704 -0.25638 0.29252 0.31983 -0.024231 -0.38089 -0.37096 0.038813 0.002022 -0.79531 -0.38653 -0.38212 0.21827 0.4776 -0.2231 0.13736 0.064696 0.4148 0.12869 -0.35552 -0.26823 0.040341 -0.25815 0.27563 0.49419 -0.1758 0.25811 -0.3401 -0.031005 0.15656 -0.016722 0.22983 0.36909 -0.060794 0.099257 -0.13895 0.34194 0.024073 -0.34706 -0.2418 -0.13364 -0.086025 0.055324 -0.34563 0.53991 0.36551 -0.090766 -0.1346 0.21202 -0.22155 -0.030866 0.12743 -0.28135 0.17701 -0.15173 -0.018258 -0.023369 -0.00638 -0.42322 -1.3251 -0.13133 -0.37617 -0.088589 -0.168 -0.45516 0.66677 0.16292 0.21581 0.026985 -0.14255 -0.6044 -0.3743 0.25466 -0.24371 -0.26281 -0.45333 0.069396 0.16025 0.50201 -0.24571 0.15171 0.62315 -0.19009 -0.72376 -0.86903 -0.087613 0.14561 0.35485 0.30589 -0.16767 0.26717 -0.5878 -0.47573 0.38508 -0.17917 0.44554 0.15533 -0.55442 0.14262 0.024764 -0.30727 0.0042029 -0.30366 -0.083989 -0.12939 -0.17858 0.62597 -0.17988 -0.036059 0.080507 0.19203 0.50822 0.3949 0.81686 0.32855 -0.026594 -0.57621 -0.17436 0.34332 0.0046707 -0.50848 -0.52363 0.019293 -0.056288 -0.069271 0.018551 0.17636 0.23585 0.20668 0.065329 0.30025 0.54376 -0.54993 -0.55273 0.81333 0.30956 0.11698 -0.4283 0.19276 0.51739 -0.24216 -0.12089 0.36578 0.045 -0.45702 -0.078447 0.45101 0.069623 0.046022 -0.20743 0.052619 -0.22687 0.11581 -0.35349 -0.033085 -0.35541 0.36638 -0.37858 -0.29241 0.043515 -0.41882 -0.10521 -0.26249 0.18502 -0.86412 0.2517 0.0964 0.29931 -0.33146 0.54186 -0.11851 -0.2104 0.057476 0.014694 0.45289 -0.20416 0.14658 -0.14917 -0.10567 0.38655 0.081924 0.17391 0.7822 0.4994 -0.12012 -0.33085 -0.13365 0.93653 -0.32158 0.013466 -0.56513 -0.20204 -0.19847 0.29712 -0.036764 -0.12111 0.27224 -0.047855 -0.20563 0.18713 0.048798 0.0061171 -0.50512 -0.55017 -0.056496 -0.26158 0.31507 0.25999 -0.56265 0.21355 -0.46628 -0.39165 -0.17727 0.50744 0.083136 -0.25254 -0.66409 0.29799 -0.36593
fix 0.041217 0.026304 -0.12088 -0.015124 -0.20396 -0.15975 0.037683 -0.52681 -0.025573 1.4915 -0.16486 -0.3755 0.031264 0.068941 -0.43858 -0.1807 -0.027784 1.6562 0.04279 0.58992 0.19547 0.12472 -0.12686 -0.41013 -0.023274 -0.13009 -0.31042 -0.3195 0.34611 -0.12497 0.041515 0.25736 0.16209 0.026605 0.12654 0.21302 -0.014959 0.27299 0.2637 0.12808 -0.13133 -0.093192 0.21035 0.084289 -0.47688 0.032782 0.22092 0.17179 -0.56708 -0.27168 0.33043 -0.34768 -0.10055 0.34583 -0.12552 -0.19208 -0.026968 0.14966 0.029286 0.11066 -0.17972 -0.45604 -0.64255 0.44073 0.78012 0.020375 -0.013943 -0.5586 -0.086338 -0.016433 0.66118 0.36846 0.14775 -0.39251 0.65632 0.13411 -0.26489 -0.40717 -0.3369 0.22314 -0.26486 -0.14751 -0.035218 -0.12324 -0.76852 0.02682 1.0511 -0.34281 0.86429 -0.06946 -0.065166 0.025324 -0.44037 0.17879 0.52722 0.31957 -0.2424 0.070883 0.57944 0.35277 -0.57707 0.019909 0.25489 -0.34563 -0.069711 -0.8938 0.62077 0.22922 -0.011263 -0.30445 -0.20696 0.046647 -0.029702 -0.12511 -0.33413 -0.14689 -0.22659 -0.014679 -0.56773 -0.40291 0.30101 -0.24002 0.022017 -0.076133 0.19546 0.28286 0.30744 0.07714 0.21224 0.23567 0.20923 0.38655 -0.52987 0.33185 0.19997 0.027174 0.11815 0.01856 -0.5349 0.12848 -1.62 0.069676 0.23179 -0.13999 0.56092 0.47917 -0.12983 0.51331 -0.034196 0.030329 0.46264 0.42863 -0.043002 0.066842 -0.038283 -0.10673 0.25079 -0.041331 -0.08667 0.059088 -0.41598 0.16035 0.14921 0.090303 0.31003 0.041144 0.019321 0.086719 0.082475 -0.21118 -0.28753 0.050939 -0.10207 -0.34937 -0.10774 0.058829 -0.028107 -0.019882 0.46549 -0.055917 -0.21281 -0.50473 -0.35089 0.43147 -0.49842 -0.20947 -0.018377 0.31311 -0.64268 0.17135 -0.028918 0.091595 0.022539 -0.062246 -0.053365 0.43538 -0.080624 0.057993 -0.11587 0.59608 -0.81521 -0.19058 -0.43425 -0.18636 -0.23314 -0.053374 -0.43263 0.67485 0.13151 0.5233 0.26208 -0.51786 0.044937 -0.23599 0.32343 -0.30295 -0.28767 0.26175 -0.6402 -0.31887 0.023984 -0.19749 -0.17265 0.090809 0.22635 -0.33964 0.24317 -0.23555 0.074372 -0.22982 0.03009 -0.19083 0.4697 0.71106 0.10662 0.18085 0.2869 0.24888 0.029091 -0.08293 0.50616 -0.31615 0.045832 -0.15638 -0.039241 -0.37378 0.298 0.065888 -0.25158 0.19834 0.079276 -0.024959 -0.12689 0.1379 0.055059 -0.14172 -0.42077 0.31353 0.35608 -0.44725 -0.3442 0.58825 -0.057802 -0.37558 0.067838 -0.51966 -0.23936 0.052634 0.72206 0.38006 0.75744 0.40906 0.19936 -0.015962 -0.064126 -0.021023 0.075547 0.34177 0.049677 0.29709 -0.27344 0.0047081 0.31962 0.029438 -0.15245 -0.93046 -0.28906 0.14131 -0.39063 -0.15762 -0.36745 0.062829 -0.075125 0.024591 -0.11478 -0.33817 0.17211 -0.12715 -0.2532 0.019796
jar 0.16232 -0.83702 -0.23611 0.25999 -0.23708 -0.18434 -0.64496 0.0047413 0.79392 0.073618 -1.0801 -0.061486 -0.0082285 -0.57675 0.17903 -0.92181 -0.26649 1.702 0.42392 -0.020405 -0.17912 0.041433 0.49458 0.85055 0.1484 -0.24766 -0.27501 0.28065 0.080512 -0.38675 0.15499 -0.86477 -0.16336 -0.23398 -0.62789 0.49405 0.19151 0.5006 0.13103 0.70963 0.28662 0.34469 0.20452 0.012264 0.031721 0.50739 -0.38118 -0.31709 0.091763 -0.18588 -0.075616 -0.31676 -0.32922 0.31184 0.42699 -0.46898 0.19932 0.42865 0.17652 0.03661 -0.45123 0.16271 0.12632 -0.022401 -0.052475 -0.53314 0.53357 0.3732 0.25388 0.45419 -0.31479 0.063019 0.14921 -0.063434 0.092124 0.6641 0.14167 -0.031214 -0.408 -0.44672 -0.36085 -0.11539 0.26715 -0.15333 -0.41156 -0.36242 1.4456 0.59358 0.14494 0.10601 -0.11562 -0.29109 0.12785 0.48561 0.58058 0.19879 -0.27695 -0.53108 -0.097884 -0.25645 0.3405 -0.03761 -0.15215 0.69397 -0.31578 -0.56789 0.090561 0.187 0.79842 0.30776 -0.5635 -0.1132 -0.43168 -0.14628 0.086257 0.23116 -0.1132 0.32712 0.10231 0.15452 -0.21015 -0.1638 -0.41954 0.034861 -0.60535 0.33579 -0.056576 -0.43431 0.51349 0.51863 -0.70766 0.14581 -0.25436 -0.17756 0.012798 0.080447 0.01123 0.2713 0.12502 -0.54464 -2.2297 0.39277 -0.14268 0.45584 -0.056725 -0.02396 -0.4488 0.8557 -0.22431 -0.29462 0.79877 0.5334 -0.23855 0.37383 -0.38948 -0.031662 -0.051414 -0.30797 -0.30031 0.1398 0.14596 0.69625 -0.28358 0.21377 -0.20991 -0.14832 0.24567 -0.324 0.064819 -0.28696 0.81664 -0.063797 0.16285 -0.40105 -0.60618 0.2923 0.095724 0.089536 -0.24371 -0.90906 0.15613 -0.11092 0.20128 -0.055204 -0.23257 -0.7127 -0.033974 -0.00048209 -0.37233 0.048015 -1.0092 0.38617 0.26116 -0.086668 0.22845 0.18378 0.16818 0.014436 0.35242 -0.25268 0.32148 -0.36114 -0.46714 0.36417 -0.28153 -0.1455 0.21548 0.19837 0.3484 -0.21864 -0.22724 -0.70597 -0.14961 -0.30914 0.41805 0.0021528 -0.084851 -0.09514 -0.96431 0.33403 0.34399 0.011854 0.40317 0.37294 0.1935 0.26252 0.13535 -0.036546 -0.28824 -0.12587 0.37819 0.010623 -0.19134 0.35616 -0.90514 -0.25813 0.48355 0.50715 0.023632 -0.56398 -0.55308 0.72845 -0.34006 -0.1452 0.55332 -0.050098 0.061227 0.20767 -0.36891 0.041422 -0.34933 0.15926 -0.44928 -0.39674 -0.10783 0.061533 -0.30281 0.15609 -0.16645 -0.81946 -0.21767 0.24114 0.36254 -0.38123 0.28498 0.9242 0.021218 -0.2987 -0.10924 -0.54996 0.58001 0.14061 0.43115 -0.17856 -0.26505 -0.22171 -0.1254 0.30178 0.31226 -0.030595 0.14508 0.57999 0.49934 -0.36302 0.51035 -0.17113 0.46393 0.13033 0.049857 -0.049737 0.21366 0.031215 0.26603 -0.21077 -0.33118 0.5331 -0.32314 -0.203 -0.30172 0.062359
jolt 0.27692 0.20936 0.48743 0.3728 0.083701 0.29451 -0.61349 0.33802 0.3379 0.88414 0.16271 0.10683 0.17531 -0.27793 0.24835 -0.20497 0.091959 -0.23478 0.36471 0.036341 0.37615 0.35734 0.02797 -0.4503 -0.34884 0.049209 0.1341 0.073695 -0.39214 -0.3689 -0.258 -0.41306 -0.71107 0.09729 0.20068 0.39636 -0.20315 0.54137 0.054839 0.045299 0.088569 0.16719 -0.54552 -0.31197 -0.28228 -0.027411 -0.39541 -0.16307 -0.033053 -0.092838 0.059778 -0.04541 -0.28412 0.68232 0.35772 0.2738 -0.090175 0.20684 -0.47259 -0.40752 -0.51648 0.49021 0.091127 0.00069951 -0.21105 0.072155 0.6236 -0.36955 -0.081663 0.61323 0.095375 -0.39157 0.31393 0.041816 -0.25967 -0.17022 0.18241 -0.17158 -0.23994 -0.11494 0.048627 -0.12809 0.17101 -0.017728 0.093461 -0.2898 0.33128 0.098333 0.36153 -0.026208 0.24882 1.0941 -0.33085 -0.20156 -0.6324 -0.043294 -0.38306 -0.16544 -0.3219 0.34628 -0.42473 0.31004 -0.26932 -0.37772 0.42989 -1.8691 -0.022875 0.11323 -0.092353 0.15498 -0.21056 -0.18393 -0.3716 -0.0063248 -0.10475 0.095084 -0.10683 -0.204 -0.049811 -0.018509 -0.51151 0.25479 -0.27891 0.20907 -0.38625 0.21862 0.040756 -0.11614 0.089869 0.42487 0.30321 -0.32327 -0.34162 0.32251 -0.024605 -0.21101 -0.28257 0.41949 -0.58266 -0.26382 -1.1446 0.56297 0.17288 -0.098954 0.24976 0.099314 -0.20257 0.36693 0.34198 -0.491 -0.025639 0.31884 0.59098 0.57546 -0.065745 -0.11073 0.20179 -0.16132 0.45745 -0.080391 0.34313 0.3883 0.078199 -0.081435 -0.13358 -0.17482 0.053713 0.24618 -0.40951 -0.37957 0.40877 -0.60222 -0.019248 -0.14513 0.19684 -0.23579 0.19983 -0.29273 -0.33958 -1.0077 -0.097415 -0.23903 0.20438 0.73286 0.061742 -0.19472 0.63885 0.1848 0.039547 -0.02711 0.18871 -0.11463 0.51566 -0.15161 0.10149 -0.4714 -0.61721 -0.037199 0.0032342 -0.40182 -0.26159 0.19935 -0.10439 0.10283 -0.61043 0.11806 0.16209 -0.14674 0.075257 0.49254 -0.4321 -0.50537 0.11426 0.55682 0.02026 0.63616 -0.10625 -0.23927 0.32203 -0.74128 0.26772 0.21451 0.16425 0.62967 -0.18792 -0.26599 0.16104 -0.34884 0.29318 -0.60402 0.14924 -0.009698 -0.019352 0.1345 -0.43157 0.065218 -0.49952 -0.019501 0.23229 0.209 0.31554 -0.44987 -0.37619 -0.16278 -0.18565 -0.31345 0.021852 -0.017792 0.26437 0.039026 -0.75421 0.042712 -0.60179 0.47967 -0.0023712 -0.068991 -0.13329 -0.45694 0.17519 0.23175 -0.47076 -0.056228 0.012169 0.073174 0.41039 0.087782 -0.1517 0.51017 -0.49424 0.079269 0.45135 0.50297 0.058869 0.32162 -0.26485 -0.28942 0.076462 0.22519 0.72018 0.48264 -0.61903 -0.78916 -0.28005 0.41291 -0.51841 -0.47457 0.51509 -0.13621 -0.22924 0.027123 -0.21848 -0.29373 0.12178 -0.24563 -0.38318 0.20385 0.033701 -0.22703 -0.64762 -0.34904
send -0.1975 0.16494 -0.79191 0.25189 0.042573 -0.06655 -0.056836 -0.67805 -0.12619 2.1356 -0.41952 0.028221 0.3537 -0.57376 -0.36478 -0.13886 -0.19299 1.2481 -0.32052 -0.18909 0.2476 0.13308 -0.14284 0.14437 -0.17819 0.21458 -0.34065 -0.44436 0.43757 -0.20893 -0.0097596 0.13046 -0.14504 -0.16918 -0.31323 0.15077 -0.37999 0.049334 0.47451 -0.31233 -0.34022 -0.14093 0.011679 -0.81132 -0.18475 0.12144 0.34692 0.38565 0.18619 -0.17489 -0.21651 -0.054929 0.29101 -0.22405 0.28148 0.11558 -0.52848 0.31855 -0.22148 0.20577 -0.28111 0.28011 -0.1238 0.14074 0.32696 0.56585 -0.089433 0.40246 0.086428 0.36047 0.073566 0.22804 0.25969 -0.14949 0.11592 0.19894 0.26952 -0.50372 0.029263 0.097982 -0.0078673 0.019312 -0.73081 0.21965 0.23147 -0.27823 0.39706 -0.34142 0.67419 -0.59164 -0.34817 0.35837 0.22285 -0.28316 -0.07878 0.11386 -0.30102 -0.24292 -0.078113 0.4237 -0.093324 -0.083935 0.38003 -0.073851 0.31275 -0.42515 0.16674 0.3984 0.08587 0.04575 0.17105 -0.42837 0.25824 0.5679 0.73238 0.15204 -0.022821 0.22712 -0.51712 0.28949 0.35421 -0.28267 0.101 0.37472 0.40871 -0.38508 0.44823 0.39975 -0.036282 0.72832 0.0071455 0.23107 -0.35383 -0.086533 -0.13724 0.051213 0.1901 0.2005 -0.38408 0.11763 -1.3463 0.32502 -0.335 -0.11278 -0.16478 -0.38692 0.18464 -0.25986 -0.29353 0.19134 0.53154 0.58581 0.0084898 0.16277 0.22715 0.45845 0.0035243 0.32454 0.080717 0.17866 0.46962 0.24998 -0.043546 -0.099133 -0.18162 -0.020331 0.17018 0.13303 0.021933 -0.021376 -0.27743 -0.079191 0.63405 -0.10787 0.39685 0.2953 -0.29635 -0.32129 -0.58824 0.34719 0.27886 -0.063562 0.39492 0.091562 0.47404 -0.12353 -0.28137 -0.45724 0.21786 -0.022774 0.58989 -0.25192 -0.050021 -0.10877 0.17899 0.20108 -0.30758 -0.31156 0.54593 0.041136 0.20546 -0.30645 0.084229 -0.39548 0.86895 0.049411 0.29092 0.15121 0.069486 0.39844 0.18393 -0.25651 -0.22733 0.15728 -0.11709 0.18873 -0.0098882 -0.35792 -1.0544 -0.088173 -0.1081 -0.29586 0.76243 0.10467 -0.3753 0.27321 0.10323 0.20283 -0.28409 -0.24547 0.23407 -0.030311 -0.026581 0.11859 -0.10137 -0.12871 -0.2143 0.090636 0.0028111 -0.048426 0.043109 0.3072 0.24022 0.031731 0.55665 -0.14391 0.024918 0.27724 0.047633 0.024956 -0.074886 0.046838 -0.41435 -0.040842 0.63984 0.41594 -0.32407 -0.25923 -0.35912 0.011094 -0.11333 -0.029412 0.35863 -0.30758 0.027705 -0.0051747 0.14118 0.53271 0.90698 0.043479 0.3321 0.18551 0.58392 0.30505 -0.18948 0.3252 -0.1874 0.098665 0.30724 -0.25924 -0.091437 0.13005 0.29168 0.4232 0.35198 0.058179 0.21455 -0.1364 -0.15195 -0.44322 -0.086958 0.12311 0.37366 0.31453 0.12008 -0.63048 0.0018221 -0.074475 -0.30462 0.0035374
add 0.002254 0.35613 -0.29808 0.11853 0.19819 0.2558 -0.63845 -0.2982 -0.15916 1.0812 -0.32861 0.07008 -0.0024182 0.26018 0.094452 -0.012197 0.043652 1.8788 -0.29965 -0.3454 -0.15989 0.26891 0.23567 -0.43287 -0.091879 -0.034299 -0.16783 -0.078396 0.41139 -0.47303 0.17654 0.40952 0.25637 -0.061869 0.13351 -0.33809 0.037208 0.27697 0.18215 -0.099562 -0.085079 -0.068507 0.37788 -0.066534 -0.20601 0.0010998 -0.093225 0.42499 0.053079 0.01328 -0.11291 -0.12612 0.48262 0.15377 -0.001972 0.0006282 -0.18514 0.24802 -0.26525 -0.20046 -0.095256 -0.029981 -0.56281 0.15957 0.20441 0.089106 -0.19274 0.015416 -0.0025818 0.10084 0.38167 0.40429 0.31905 -0.080858 0.47077 0.34542 0.18105 -0.025572 0.13649 -0.39251 -0.079726 -0.30042 -0.61633 0.096362 -0.058981 -0.02772 0.33504 0.39471 0.6769 -0.18472 -0.21043 0.0066409 0.19422 0.021176 0.19208 0.21361 -0.23652 0.26058 -0.013347 0.090182 -0.13873 0.037345 -0.037335 0.071206 0.35962 -0.6053 0.38677 -0.020782 0.15005 0.15286 -0.54773 -0.76119 0.1567 0.22187 0.13973 -0.17709 0.14422 -0.05288 -0.11151 -0.086014 -0.1655 -0.40885 -0.14981 0.28 0.25948 -0.1965 -0.17774 0.079851 0.2164 0.26981 -0.42447 0.27219 -0.47805 0.19506 -0.13096 0.029515 0.095524 -0.2096 -0.50448 -0.2086 -1.5717 0.57226 0.0303 0.39872 0.1668 -0.11747 0.17282 0.23842 -0.19045 -0.21161 0.83729 0.21263 0.36396 0.02452 -0.076922 -0.2123 0.24793 -0.27354 0.0018931 0.072949 -0.14302 0.5281 -0.43421 -0.24044 -0.42945 -0.30482 0.18932 -0.11535 0.37374 -0.36177 0.15953 0.053785 0.31229 -0.29464 0.12408 -0.16703 0.33207 -0.16323 0.47025 0.096448 -0.25182 0.36221 0.0025193 0.098314 -0.28892 -0.13219 -0.39941 -0.45409 -0.77128 -0.27083 -0.2079 0.23238 -0.068685 -0.11017 0.44117 -0.01003 -0.20629 -0.13553 0.064285 0.44911 0.14153 -0.8422 -0.36676 -0.085843 0.41891 0.49389 0.30322 0.34213 0.11602 0.2833 -0.15546 -0.26583 0.20094 -0.79265 -0.21711 0.48179 -0.013629 -0.05531 -0.45496 0.19333 -0.25493 0.030376 0.22281 0.59405 0.27762 -0.065854 -0.050197 -0.15781 -0.51918 -0.092894 -0.46937 0.10349 -0.29245 0.29839 0.074389 0.0015377 -0.26272 0.35277 0.16148 0.16036 -0.026056 0.28796 -0.14364 -0.31495 0.74541 -0.28912 -0.32979 0.045784 0.036992 0.021793 0.038758 -0.11132 -0.63948 0.055177 -0.14681 0.45534 -0.13604 0.059315 -0.10855 -0.16164 0.5487 0.06636 0.57769 0.099552 -0.15488 -0.27593 -0.36086 -0.037024 0.39977 -0.079063 0.40241 -0.15306 0.28719 0.04627 -0.002922 -0.35119 0.013383 -0.17148 -0.23471 0.11978 0.20637 0.053901 0.18987 0.16178 -0.47352 -0.34954 0.37733 -0.068913 0.08205 -0.27032 -0.16512 0.21486 -0.38723 -0.049825 -0.30243 -0.56154 -0.4006 -0.66234 -0.034592 0.29193
board 0.17669 -0.11021 0.38525 -0.053448 -0.016386 0.058707 -0.3798 -0.50194 0.25899 2.3244 0.030293 -0.31124 0.30976 0.1385 -0.63266 -0.91496 0.22593 1.7357 0.21668 0.22742 0.32274 0.5409 -0.23374 -0.11515 0.21171 0.50368 0.19214 0.021855 -0.032325 -0.18614 -0.11099 0.10863 -0.47062 -0.19328 0.068786 0.13818 -0.27099 0.10373 -0.46754 -0.49632 0.014434 0.14445 -0.01755 -0.36541 -0.068075 -0.25042 -0.19081 0.0058375 -0.42387 -0.01964 -0.21834 -0.2193 0.26475 0.15462 -0.41427 -0.81149 -0.38473 -0.03956 -0.44176 -0.091004 -0.17737 0.46873 0.5158 0.14264 -0.2745 -0.043285 -0.26994 0.17878 -0.33555 0.16812 0.69684 -0.35277 0.25793 -0.10237 0.20953 0.24093 -0.37838 -0.21123 0.25334 0.3501 -0.074339 -0.48274 -0.3353 -0.10124 -0.12677 0.37204 0.085673 0.30837 0.07725 -0.44217 0.58776 -0.034671 -0.56202 -0.35521 0.0037799 -0.37546 -0.13141 -0.0062826 0.15409 0.88482 0.22102 0.049091 -0.29754 0.051578 -0.2492 -0.6018 0.055634 -0.0049271 0.69404 -0.29434 -0.14637 0.13803 0.35218 0.054426 0.5368 -0.24564 -0.20836 -0.32233 0.26913 0.13006 0.31184 -0.26936 0.35614 0.35758 -0.17422 0.7158 0.21185 0.19965 0.019454 0.015156 -0.26466 0.29041 -0.34286 -0.32652 0.19556 0.015938 0.26257 0.41815 0.25417 -0.28308 -0.74211 -0.16517 -0.13923 -0.2041 0.28822 0.34497 -0.84017 -0.20668 0.061491 0.17148 -0.38539 -0.32387 -0.68057 0.13131 0.24439 -0.46204 -0.17411 0.38361 0.029111 -0.33527 -0.10092 0.020511 -0.12094 -0.089543 -0.32893 -0.23294 -0.01317 -0.17704 0.34271 -0.14806 -0.32372 -0.37863 0.36905 -0.19593 -0.15122 -0.22027 0.061315 0.24382 -0.015741 0.19346 0.0052287 -0.058272 -0.18537 -0.17624 -0.025341 0.010862 -0.30451 0.059268 -0.23506 -0.041944 -0.19132 0.34317 -0.48751 0.010821 -0.12566 0.23663 0.57184 0.073305 0.040166 0.2925 0.46733 0.30317 0.011721 -0.16294 0.51966 -0.10067 -0.35421 0.093575 -0.47802 0.42672 -0.21738 0.65883 -0.26896 -0.157 0.56584 0.75938 -0.15611 -0.077382 -0.36993 0.15289 -1.1214 -0.051839 0.01481 -0.095707 -0.18734 -0.29607 -0.35395 0.13639 0.14002 -0.12076 -0.2689 -0.34424 0.20848 0.28235 0.85377 -0.24995 0.11377 0.1122 -0.010288 0.087719 0.2649 0.23538 0.45315 -0.34361 -0.3151 -0.19882 -0.041399 -0.3175 -0.086924 -0.16204 0.39384 -0.099951 -0.27697 -0.25049 0.38654 -0.027056 -0.24694 -0.14113 -0.40768 0.18794 0.42964 -0.26497 -0.29499 0.090839 -0.072027 -0.40724 -0.5166 -0.27363 0.22627 0.061554 0.065819 -0.035363 0.060002 0.50078 -0.29736 -0.046967 0.10454 0.090354 -0.23748 -0.77176 -0.19337 -0.33858 -0.13668 0.40129 0.088961 -0.24638 0.24196 0.32077 -0.016295 0.30002 0.016925 -0.11968 0.20428 -0.70216 -0.29741 0.052359 0.20907 -0.71088 -0.15121 0.069335
crack -0.040324 -0.38964 -0.52275 0.40127 -0.10769 -0.29465 0.11708 0.40015 0.27177 0.95589 -0.18944 -0.43077 -0.20132 -0.38124 0.56148 -0.11508 0.22242 1.4301 0.15502 0.10187 0.39303 -0.67649 -0.10062 -0.1794 -0.51191 -0.31121 -0.37621 -0.43603 0.59241 -0.36874 0.0070543 0.09582 -0.34163 0.3904 0.12925 -0.018686 -0.20537 0.44003 -0.68688 -0.095949 -0.13581 0.21921 0.64938 -0.62306 -0.0097225 0.0056645 0.10633 -0.38471 -0.46438 0.15352 0.14651 0.37796 -0.063863 0.32268 -0.32551 0.26471 -0.37439 0.18531 -0.31739 0.51261 0.20869 0.13434 -0.22224 0.43089 -0.25257 -0.3674 0.49097 -0.39885 0.24317 -0.092715 -0.33597 -0.23653 0.33199 -0.49273 -0.29238 -0.23075 -0.19468 0.050405 0.015102 0.60915 0.27207 -0.19855 0.41674 -0.36222 -0.71051 0.67196 0.70962 -0.23611 0.078836 0.30195 0.065182 0.031341 0.16578 0.21307 -0.46946 0.46514 0.45991 0.098977 0.028618 0.05666 -0.18248 0.38462 0.16365 -0.090887 -0.26445 -0.49352 0.05496 0.33235 0.32002 0.28222 -0.22871 0.54614 0.02158 -0.12711 -0.14198 -0.2341 0.18668 0.82569 -0.13491 -0.56578 -0.21833 0.4317 -0.54573 -0.61575 -1.0399 0.79273 0.22865 -0.16244 0.048711 0.34994 0.56817 0.43408 0.010265 0.068511 0.44976 0.296 0.071756 0.43203 -0.64209 -0.71338 -2.3291 0.14369 0.77564 -0.014401 0.1211 0.29823 -0.043009 0.404 -0.20842 -0.20358 0.21637 0.27669 -0.25754 0.69318 0.27781 0.33589 0.30749 0.16044 -0.21862 -0.26745 0.58492 -0.39156 -0.17855 0.48134 0.060239 -0.23182 0.38986 -0.031107 -0.49627 -0.27897 0.16821 -0.25811 -0.1129 -0.46603 -0.18381 0.20841 -0.70393 -0.061256 -0.068382 -0.30695 -0.26837 0.52023 -0.45807 0.25907 0.31673 -0.16884 0.10631 -0.11762 0.22709 0.22752 -0.36684 -0.24632 0.16447 0.070765 0.28747 0.5129 0.62397 0.71082 -0.099113 0.36817 0.40308 -0.45113 -0.25023 -0.63321 -0.15619 -0.048848 0.12145 0.17241 -0.302 0.12878 0.15812 -1.1475 -0.0088826 -0.057394 0.62645 -0.013101 -0.49427 -0.39074 -0.58116 -0.00071451 0.061581 -0.29797 -0.41386 -0.24277 -0.0062152 -0.14887 -0.010577 -0.37632 -0.077765 0.70712 -0.17229 0.16342 0.20639 0.46786 -0.32291 0.24304 0.13447 0.20728 -0.030309 -0.21147 0.86191 -0.22951 0.27026 -0.46283 -0.072994 0.2286 -0.1487 0.1568 -0.067951 -0.089557 0.43358 0.38274 -0.23531 0.20571 0.13605 -0.3068 -0.14363 0.47919 -0.25249 -0.0078143 0.0046425 0.68786 -0.63161 -0.68467 0.2606 -0.10777 -0.23336 -0.060975 0.48019 -0.29065 0.53853 0.54477 0.55507 0.064694 0.10755 -0.015184 -0.25216 -0.64495 -0.65324 0.27496 0.55584 -7.3904e-05 0.2311 -0.29015 0.12866 -0.22231 0.018013 -0.13234 -0.18028 -0.43517 -0.048648 -0.23303 0.063321 0.067393 0.15922 0.040375 0.095856 0.22567 -0.36625 -0.052488
announce 0.2987 0.23422 -0.34285 0.18551 0.3948 -0.55082 0.28411 -0.33351 -0.35678 2.151 -0.29497 -0.1929 0.29037 -0.29762 0.036242 -0.24455 -0.39152 0.084954 0.082488 0.046972 -0.0057712 0.2004 0.058282 0.071895 -0.47265 0.17176 -0.79806 -0.032098 0.1582 0.052116 -0.16957 -0.31989 0.12195 0.44962 -0.37246 -0.030368 0.071668 0.13085 0.080703 -0.055228 0.17941 0.1806 0.040345 0.18595 -0.23243 -0.12717 -0.0092759 0.045662 -0.22437 -0.086164 0.26094 -0.034147 -0.31733 0.069192 0.084885 -0.1838 -0.38196 0.14267 -0.46129 0.14842 0.23801 -0.054344 -0.060595 -0.092611 0.1796 0.22629 -0.055002 -0.63999 0.41232 0.13431 0.1107 -0.011767 -0.16247 -0.45802 0.38429 0.098806 -0.027387 -0.3579 0.016937 0.36925 -0.19606 0.15204 -0.73355 0.30649 -0.12311 -0.32079 -1.1632 -0.028203 0.26831 0.37967 0.2754 0.053161 -0.27125 -0.055997 -0.38043 0.31958 -0.047645 -0.080417 0.4352 0.3687 -0.045597 -0.36101 -0.071326 0.19367 0.0052817 0.44814 0.21332 0.32852 -0.12161 0.16993 -0.14334 0.37846 0.060017 0.62204 0.57296 -0.20216 0.33796 -0.25358 0.13172 0.22685 0.18504 0.029427 0.23807 0.3469 0.077638 0.1915 0.16262 -0.044948 -0.22824 0.0073687 -0.27832 0.11209 -0.10749 -0.023561 -0.090506 -0.014938 -0.05621 0.087504 0.1785 0.15811 -0.49544 -0.17432 -0.42927 -0.44591 0.36548 -0.059391 0.048115 0.45663 -0.12836 -0.1053 -0.22625 0.052979 -0.27687 0.38163 0.0039181 -0.23356 -0.022582 -0.33357 0.22338 -0.047728 -0.13826 0.04659 -0.23357 -0.54913 -0.29882 0.15666 -0.15956 -0.25224 -0.24463 -0.16005 -0.18772 0.28456 0.048934 -0.30526 -0.39446 -0.34094 0.011579 -0.037313 -0.16166 0.61909 -0.093301 0.075082 0.17803 0.018474 0.19519 -0.12011 -0.13545 0.19001 -0.4894 0.065074 0.32159 -0.37836 -0.010098 -0.23205 0.54086 -0.073457 0.20019 0.30234 0.21445 0.22832 0.014282 -0.24284 0.15638 -0.57815 0.48038 -0.07697 -0.48767 0.004773 -0.057247 0.054334 -0.41483 -0.14534 0.14983 0.23393 -0.30022 0.66272 0.11389 -0.98997 0.17953 0.27225 -0.12762 -0.17278 -0.19794 0.052051 -0.016766 -0.28493 0.081603 -0.38635 -0.30251 -0.087307 0.6696 -0.059751 -0.15612 -0.076829 -0.028831 -0.16533 -0.64966 0.14511 -0.30117 0.26746 0.46099 -0.17106 -0.0086863 -0.2522 0.17047 0.12153 0.22217 -0.10639 0.12811 0.23118 -0.69496 -0.27219 -0.23298 -0.082104 0.049794 -0.54647 0.058718 0.12055 -0.58107 -0.10108 0.42608 -0.14686 -0.19944 0.43653 0.060399 -0.38429 0.044816 -0.29091 0.59913 -0.04721 0.47566 0.24215 0.058039 0.13674 0.12865 0.024881 0.062406 0.53766 0.29369 -0.12129 0.24544 0.29585 -0.17065 0.39572 -0.18769 -0.22601 -0.067212 0.037259 0.17461 0.4976 -0.47541 0.040254 -0.11568 0.030244 -0.19636 -0.39741 0.017221 -0.1006 0.14055 0.20685
include 0.046109 -0.13076 -0.4638 -0.17601 0.1807 0.17494 0.0087555 -0.21672 0.0052316 2.0162 -0.02713 0.014656 0.46915 0.26099 0.19925 -0.3791 0.37726 1.74 -0.57461 -0.06732 -0.36165 0.31229 -0.37361 -0.178 0.13972 0.13393 -0.14096 -0.36325 -0.037344 0.06559 0.41943 0.17841 0.16388 0.094317 0.12932 0.055792 -0.0058582 0.07222 0.052988 0.19735 -0.18512 0.11159 -0.17716 0.10571 -0.62046 0.25171 -0.12668 -0.021482 0.33424 -0.013273 0.012669 -0.064789 0.2236 0.36002 -0.058607 0.021569 -0.16112 -0.22857 -0.60421 0.31415 0.25983 0.45494 0.071281 0.47292 -0.047596 -0.14619 0.20679 0.05939 -0.17127 0.22857 0.35754 0.061281 0.26439 0.040866 0.10439 -0.16231 -0.31619 0.13667 0.41813 -0.40003 -0.23909 -0.075316 -0.26621 -0.2737 0.049489 -0.27805 -0.77052 0.74869 0.13029 -0.24632 0.020179 -0.016887 0.29012 0.1377 0.49171 -0.19243 0.41314 0.083432 0.21296 -0.39218 -0.50228 0.19091 -0.057685 -0.12143 0.0021539 -0.87496 -0.16517 -0.033996 -0.072866 0.16303 -0.57016 0.13162 0.3013 0.13207 -0.26986 -0.21986 0.2219 0.28673 -0.059414 0.61068 0.055795 -0.045923 0.37339 -0.070508 -0.20256 0.0010624 0.50635 0.26714 0.31575 -0.11976 0.25038 -0.0040608 0.17694 0.1964 0.31794 0.41944 0.27014 -0.40093 0.32324 0.11794 0.24509 0.070628 0.18355 -0.44893 -0.16151 -0.041205 0.34864 -0.083001 0.25218 -0.23545 0.14349 0.26438 -0.24567 0.11477 0.098272 0.072998 0.11548 -0.073058 -0.19698 -0.23621 -0.01933 0.080428 -0.46805 -0.32125 0.17385 -0.19068 0.050615 0.29741 0.45095 -0.3218 -0.20691 0.24498 0.32695 0.16579 -0.30161 0.028918 -0.0381 0.327 0.33094 -0.080634 -0.13 0.092297 -0.13439 0.033882 -0.10445 -0.022986 0.14962 0.35761 -0.20286 -0.039333 -0.26015 0.075 -0.36302 -0.35703 -0.11789 0.066831 -0.13742 0.019817 0.12121 0.33452 0.20121 -0.72696 0.44507 -0.052726 0.43886 0.16213 0.29837 0.29167 -0.072741 0.32528 -0.01882 0.29467 0.23604 -0.39012 -0.24471 0.49913 -0.038543 0.1748 0.084624 0.013176 -0.14837 0.080781 -0.093176 0.29353 0.17711 -0.116 0.18215 -0.064144 0.0064781 0.23793 -0.38717 -0.16304 0.27531 -0.20826 -0.055627 0.014546 0.24168 0.02573 0.087345 0.35157 -0.077716 0.063897 -0.39693 0.01403 0.42726 0.44622 -0.29404 0.074686 -0.097303 -0.24709 -0.12565 0.025072 -0.53024 0.054057 0.10884 0.64603 0.24253 -0.049151 0.1697 0.17484 0.50039 -0.38 -0.32949 0.23632 -0.1237 0.0011419 -0.13319 0.030101 0.8235 -0.5009 -0.18706 -0.60877 0.33952 -0.28669 0.31867 0.32921 -0.099714 0.49267 0.046745 -0.061484 0.17675 0.53531 0.23622 -0.2063 -0.002171 -0.11107 -0.065056 -0.18663 0.50183 -0.16037 -0.43363 0.41567 -0.46353 0.077401 -0.31206 0.057726 -0.15659 -0.49781 0.38407 -0.077479
sway 0.21977 0.44755 0.27339 0.48292 -0.062159 -0.22078 -0.37148 0.37616 -0.44873 1.3231 0.48512 -0.059095 0.34279 -0.38388 0.03231 -0.011155 -0.34219 0.19722 -0.16083 0.20357 -0.075305 -0.0045531 0.017133 -0.067302 -0.37295 -0.18879 -0.046255 0.085183 0.068451 0.054721 -0.097476 0.28263 -0.78331 -0.56995 0.83929 -0.079219 -0.10792 0.22177 -0.39326 -0.36661 0.032852 0.18244 -0.19008 0.13924 0.70106 -0.20494 -0.33405 -0.50021 -0.28713 -0.1656 0.17705 -0.41651 -0.30337 0.007889 0.11382 0.49616 -0.094351 0.15619 -0.16668 -0.11073 -0.017377 0.50145 -0.00012859 -0.10183 0.097586 -0.028351 -0.22639 -0.47674 0.0084761 0.012076 -0.40037 0.053703 0.30508 0.52289 0.16851 0.18071 -0.60595 0.52335 -0.38635 -0.33592 -0.84437 -0.12269 -0.2922 0.25488 -0.28115 0.49221 0.30654 -0.18116 0.045922 0.11728 -0.087519 -0.66476 -0.14167 0.98999 -0.19824 0.081519 -0.013389 0.094201 -0.5441 0.27503 -0.20481 0.70165 -0.061699 0.38742 0.22751 -1.7839 0.69464 -0.25898 0.14783 0.015927 -0.069004 -0.25677 0.046113 -0.28688 -0.10202 0.10143 -0.2508 -0.63689 -0.24799 0.054686 -0.13206 0.20138 -0.21456 0.45126 -0.11088 0.11535 -0.0071811 0.29007 -0.31561 0.52428 0.63667 0.050068 -0.5993 -0.37831 -0.0038252 -0.080225 0.17492 0.372 -0.30628 -0.50566 -1.3364 0.056484 0.41361 -0.21708 -0.28354 -0.31188 0.75876 -0.012975 -0.038031 0.23974 -0.050222 -0.21112 0.0048718 0.050526 0.43362 -0.0036965 0.26524 -0.25576 0.11327 0.16504 0.44366 0.3275 -0.17155 -0.071708 0.20469 0.50123 -0.33608 0.4665 0.15004 -0.34648 0.58439 -0.085594 0.25479 0.15234 -0.11375 -0.59755 0.27373 -0.060654 -0.194 0.090978 0.44306 -0.07506 0.10248 -0.021817 -0.25883 -0.20547 -0.23863 -0.48094 0.22691 0.43499 -0.12318 -0.94784 0.1296 -0.22906 -0.043319 -0.55821 -0.28625 0.061957 -0.67709 0.045817 -0.37945 0.43524 -0.36331 -0.15166 -0.073234 -0.0027248 0.19775 -0.26027 0.26708 -0.085911 -0.29351 0.08703 0.011943 0.49802 0.24177 0.27815 -0.17358 0.064465 0.14565 0.32935 0.19929 -0.29577 -0.015301 -0.24357 -0.079806 0.37792 0.084746 -0.24917 0.24672 -0.10989 -0.34288 -0.0038473 -0.030502 0.070833 0.21512 0.031913 -0.19843 0.10616 0.045862 0.19895 -0.37391 0.042921 -0.076126 0.02594 -0.70829 -0.20563 -0.065265 0.019902 -0.17135 0.4924 0.045847 0.25568 -0.38947 -0.1375 -0.25371 0.69279 -0.45134 -0.11808 0.11718 0.25489 -0.34506 -0.46896 0.2637 0.20257 0.71296 -0.34238 0.20871 0.21019 0.01317 0.65996 0.48601 -0.18419 -0.024657 0.36529 0.35666 -0.035253 0.50849 0.05737 -0.25752 -0.30428 0.13407 -0.2454 0.58363 0.55802 -0.45305 -0.20143 -0.089791 0.23709 0.44066 -0.63863 -0.57318 -0.2436 0.15049 -0.43192 -0.13761 0.05533 0.28059 -0.20258 0.19439 -0.32466
match -0.22697 0.36474 -0.14265 0.027508 0.06498 -0.36279 0.0072824 0.5546 0.082651 1.9447 -0.42003 0.18755 0.16407 0.14695 0.62245 -0.37899 0.051992 0.88026 0.065598 -0.17521 -0.61764 -0.35147 0.33832 -0.21453 0.22719 0.19456 0.031161 -0.0019165 -0.39001 0.30201 0.25429 -0.071116 0.23737 -0.085873 -0.060873 0.077234 0.053869 -0.19804 -0.28174 -0.59471 -0.018353 0.36608 0.27969 -0.27312 -0.014002 -0.27632 -0.63464 0.23137 -0.13721 0.28288 0.13762 -0.084239 0.14556 -0.60298 -0.56954 0.25035 -0.015152 -0.057282 0.17838 0.064386 0.063987 -0.021692 -0.38212 -0.1101 -0.19815 0.63766 0.092931 0.35286 0.35549 0.13243 0.37998 0.49734 0.66177 0.46828 -0.13114 0.77851 -0.11396 -0.49782 0.2615 -0.12997 -0.24241 0.2134 0.27152 -0.025636 0.17006 0.26729 -0.20459 0.57237 0.57113 -0.070843 -0.3223 0.13511 -0.034208 0.25764 0.42241 -0.3069 0.50334 0.11621 0.33462 0.60045 0.12574 -0.060386 0.43829 -0.42408 -0.11859 -0.63189 -0.031993 0.18427 -0.11686 0.11315 0.11113 -0.79305 0.0874 0.40744 0.19049 0.17399 0.09744 0.22063 0.26673 -0.24047 -0.25968 -0.13178 -0.31677 0.095218 -0.39338 0.045872 -0.092284 0.016378 -0.15772 -0.15434 -0.18629 0.4476 -0.18669 -0.41278 0.38232 -0.15638 0.2983 -0.163 -0.37358 0.053199 -1.5604 0.698 -0.36395 -0.21753 -0.28383 -0.060306 -0.26876 -0.34838 0.25846 0.093862 0.029756 -0.32455 0.14363 -0.24729 -0.37755 -0.33519 -0.17216 0.21062 -0.26067 0.1531 -0.37182 0.26255 0.46568 -0.63115 0.088066 -0.38571 -0.1932 0.21998 -0.36799 0.38494 -0.27349 -0.0085375 -0.79265 -0.060248 -0.21378 -0.20413 0.21854 -0.06493 0.30213 0.61317 0.15779 -0.61081 0.045431 0.163 -0.020563 0.048021 -0.3084 0.62309 0.17144 -0.099691 0.37717 0.5591 0.33002 0.36102 0.20833 0.24775 -0.56202 -0.77461 0.049779 0.088413 0.61565 -0.20652 0.58217 0.47705 0.10769 -0.26795 -0.038013 0.34623 0.099676 0.50062 0.037528 0.041554 0.31639 -0.29592 0.0085295 0.50564 -0.078335 0.083728 -0.54697 0.28107 0.52607 -0.041443 0.010145 -0.13015 0.1001 0.084911 -0.12029 0.26562 0.43991 0.38165 0.14262 -0.1546 -0.4153 -0.1862 -0.50761 0.019375 -1.018 0.08916 -0.27228 -0.0545 0.36944 0.23456 -0.4813 0.28823 -0.030786 -0.46522 0.10364 -0.19257 -0.037904 0.60408 -0.046382 -0.1805 -0.35719 -0.30403 0.40063 0.27121 -0.25272 0.15954 -0.20827 0.15136 0.25328 0.33574 0.095575 0.33412 0.089854 0.60505 -0.19139 0.30079 0.21737 0.31371 -0.13105 0.19542 0.4636 0.73101 -0.014201 -0.12319 0.066355 0.56898 0.11252 0.44456 0.014827 0.19707 -0.315 -0.096987 -0.051531 -0.52576 -0.17223 0.4251 0.13119 -0.58628 0.36263 -0.32033 -0.49572 -0.12068 0.085622 0.032575 -0.59144 -0.68448 0.46723 0.36456
build 0.018244 -0.011115 -0.17317 -0.1578 -0.2816 0.12281 0.11398 0.20141 0.33734 1.987 -0.06629 -0.77256 -0.43263 0.49857 0.31243 0.3524 -0.22506 1.9243 -0.45427 0.52546 0.28915 0.021514 0.2735 0.27452 -0.26205 0.45257 0.46344 -0.10804 0.30616 -0.04233 -0.11216 -0.1917 -0.0028493 -0.088244 0.45652 -0.093951 0.67176 0.333 -0.0048716 0.29223 -0.43882 -0.28292 0.071663 0.0091324 0.14915 -0.32698 0.089459 -0.075953 -0.63887 0.10441 -0.13782 -0.050909 0.060726 -0.28015 0.31175 0.019214 0.15644 0.10574 0.27215 0.68208 -0.29749 0.36371 -0.36746 0.53668 0.64125 -0.29221 0.3934 -0.0008412 -0.43232 0.27815 0.13389 -0.035452 0.10917 -0.34439 0.67386 0.18408 -0.20691 -0.21836 -0.31763 -0.01856 -0.050124 -0.30974 0.28845 -0.23151 -0.19869 0.67822 -0.23678 0.15267 0.2828 -0.025838 -0.24034 0.17712 -0.32046 0.047519 0.13503 0.51454 0.12018 0.17879 0.046365 0.40078 -0.038737 0.045648 -0.12317 -0.14998 -0.010647 -1.258 0.92968 0.23824 -0.26467 -0.29565 -0.074332 -0.15635 0.18786 -0.025836 0.23734 -0.24133 0.36807 0.043018 -0.35285 -0.13698 0.50507 -0.18546 -0.14564 -0.31914 -0.070031 0.09919 0.078869 -0.08837 -0.090332 -0.27529 -0.15439 0.68784 -0.26193 -0.20018 0.19996 0.1088 0.53177 -0.11165 -0.11306 -0.19319 -0.90038 -0.0053362 0.22771 0.11568 -0.020613 -0.10631 0.058528 0.25263 -0.026514 -0.35856 0.32029 0.70624 -0.26926 0.59421 -0.091584 -0.36904 0.2451 -0.13095 -0.22177 -0.07702 0.176 -0.15534 -0.48993 -0.12068 0.20159 -0.0069854 0.1323 -0.38772 0.68671 0.03319 -0.090472 0.35607 0.0096086 -0.025372 -0.24813 0.12897 -0.24141 0.22484 0.14242 0.24197 0.78523 0.48174 -0.0073362 -0.43159 -0.12039 0.020589 -0.063298 0.085137 -0.28973 0.20165 0.20737 0.10768 0.014596 -0.096028 -0.051131 0.39005 -0.38192 -0.06232 0.35799 0.27227 0.18109 -0.24154 0.35602 -0.17195 0.052778 0.28504 -0.58976 -0.20442 -0.37068 -0.38674 -0.33687 -1.0832 0.1071 0.13259 0.67739 -0.24193 0.16233 -0.28509 -0.43642 -0.037637 0.054558 -0.7453 0.03558 0.41265 0.37483 -0.1398 0.026464 0.10342 -0.046796 0.22099 0.21575 -0.10151 -0.63848 -0.044252 0.23947 0.11854 -0.098674 0.27028 0.23755 0.29753 0.41919 -0.057893 -0.23638 0.39623 0.36175 -0.15699 0.24239 -0.22732 -0.096944 0.23757 0.24997 0.38413 -0.34875 0.45172 0.58057 -0.25175 0.20002 0.026403 -0.28084 -0.53688 0.20306 0.11305 0.6603 0.4743 0.46534 -0.79266 -0.14182 -0.14206 0.13532 0.54753 0.88525 0.1259 0.093721 -0.26824 -0.62409 -0.53553 0.62211 -0.17639 -0.022383 -0.01714 -0.25629 -0.013151 0.0889 -0.16003 -0.23823 -0.61738 -0.10556 -0.32768 0.011133 -0.52659 -0.48936 -0.28374 0.44121 0.24868 -0.36048 -0.045895 -0.13365 -0.32938 -0.047202 0.26992
